tree
version=v4
num_class=1
num_tree_per_iteration=1
label_index=0
max_feature_idx=14
objective=tweedie
feature_names=TC_DANGKY SEMESTER_INDEX PTXT TOHOP_XT DIEM_TRUNGTUYEN DIEM_CHUAN SCORE_GAP ENTRY_RANK BENCHMARK_TIER Z_SCORE GAP_RATIO LAST_GPA LAST_FAIL LAST_PASS_RATIO PRESSURE_VS_R2
feature_infos=[1:35] [0:7] [0.59324372342763976:0.96170982468048716] [0.41602616973949791:0.97794700216648778] [0:59.060000000000002] [0:50.880000000000003] [0:10.609999999999999] [0.00014031149151115475:0.99992982456140356] [0.00030400823160750198:1] [-6.5153808141330538:11.234516951824148] [0:0.62046783625730983] [0:4.0800000000000001] [0:21] [0:1] [0:22]
tree_sizes=10250 11005 11312 10264 10284 10484 10837 10821 11015 8226 9646 9819 9956 10388 9754 10175 8768 8655 9166 9011 9105 8682 9123 8921 8139 7296 10085 7944 9980 7300 8020 6955 8018 8167 9125 9022 5547 5879 5355 9024 6112 7514 7837 5674 7176 5672 5543 8077 4942 6238 7305 6529 5883 6358 4478 8307 3956 5240 5695 7189 6114 6991 6864 4697 4504 6895 4045 6817 5827 4603 6473 5164 4635 4705 5895 6242 5242 3711 7117 5903 6128 6210 6638 5260 6125 4700 4381 3204 7111 7120 4387 5273 4064

Tree=0
num_leaves=97
num_cat=0
split_feature=13 4 13 11 1 1 1 4 1 12 0 1 7 13 1 1 5 9 7 13 1 1 1 13 11 13 12 0 6 0 0 14 3 11 10 11 0 12 6 1 11 9 13 11 11 13 6 11 13 13 11 6 11 9 3 9 8 2 0 3 13 3 12 7 5 2 10 8 9 14 3 5 3 3 12 6 9 9 10 2 11 5 13 10 11 0 6 13 3 3 0 9 5 10 8 6
split_gain=201.943 75.5315 36.6044 32.8707 25.6212 17.3882 16.1984 13.6111 13.4123 12.8956 11.7868 9.38627 8.69557 8.51899 6.89928 8.78915 5.8552 5.28087 5.12782 4.84321 5.10274 4.93786 4.79209 4.59394 3.80181 3.32816 3.14385 3.0237 2.86746 2.8235 2.76747 2.59822 2.53561 2.51626 2.4419 2.28774 2.27315 2.20146 2.06297 1.97514 1.97119 1.90687 1.84139 1.88318 1.73691 1.45555 1.39553 1.33605 1.28505 1.2422 1.23494 1.18643 1.10869 0.921003 0.909682 0.866951 0.725588 0.71282 0.645813 0.642119 0.637702 0.994747 0.619398 0.597084 0.589159 0.587733 0.538032 0.524248 1.19056 0.516236 0.509233 0.497009 0.46781 0.44878 0.416051 0.411479 0.407917 0.398043 0.385067 0.384239 0.366541 0.319358 0.314295 0.31102 0.283989 0.264448 0.252354 0.238014 0.178004 0.16832 0.164045 0.158546 0.13709 0.0725699 0.0347535 0.0252154
threshold=0.56696428571428581 22.175000000000004 0.28991596638655465 2.0150000000000001 1.0000000180025095e-35 2.5000000000000004 2.5000000000000004 20.605000000000004 2.5000000000000004 1.0000000180025095e-35 13.500000000000002 2.5000000000000004 0.64772563822768114 0.94281045751633996 2.5000000000000004 1.0000000180025095e-35 18.465000000000003 0.77070701197586522 0.3582470415969225 0.8377192982456142 2.5000000000000004 1.0000000180025095e-35 2.5000000000000004 0.82843137254901966 2.5650000000000004 0.45227272727272733 3.5000000000000004 17.500000000000004 3.0600000000000009 13.500000000000002 17.500000000000004 1.1602564102564104 0.80791291169965962 2.1950000000000007 0.074464301324358578 2.2951641507292435 18.500000000000004 15.500000000000002 4.655000000000002 4.5000000000000009 2.8650000000000007 1.2535147236225834 0.82843137254901966 1.8050000000000004 1.9650000000000001 0.94281045751633996 1.8750000000000002 1.6950000000000001 0.6858552631578948 0.47493734335839605 2.7050000000000005 0.84000000000000175 1.675 -1.0155106459363623 0.80841601353533599 0.83016095827347736 0.12969072167561349 0.80810256289914428 9.5000000000000018 0.80721994311977985 0.46862745098039221 0.80662132022588573 3.5000000000000004 0.4624688203150113 21.705000000000002 0.80709179380790763 0.18476665080268895 0.25378898628639796 -0.74209474943135223 1.8944444444444446 0.79965726425205086 21.565000000000001 0.80772417814479691 0.79274581516057319 3.5000000000000004 2.5749999999999997 0.84099225671671085 1.1507091734791974 0.08560660909707149 0.80790584808862087 1.6050000000000002 21.265000000000004 0.7947368421052633 0.2094920685699157 1.8350000000000002 20.500000000000004 0.71499999999999997 0.47493734335839605 0.80498890654629951 0.80669139806350898 18.500000000000004 1.0684706674236277 21.435000000000006 0.10548835659089685 0.66470677793558497 1.4700000000000009
decision_type=2 2 2 2 2 2 2 2 2 2 2 2 2 2 2 2 2 2 2 2 2 2 2 2 2 2 2 2 2 2 2 2 2 2 2 2 2 2 2 2 2 2 2 2 2 2 2 2 2 2 2 2 2 2 2 2 2 2 2 2 2 2 2 2 2 2 2 2 2 2 2 2 2 2 2 2 2 2 2 2 2 2 2 2 2 2 2 2 2 2 2 2 2 2 2 2
left_child=2 7 11 6 10 16 48 14 58 12 92 34 24 27 15 66 25 30 49 20 75 29 72 47 -10 -4 31 76 35 -21 46 -11 45 62 -1 53 38 -13 -31 -28 -14 65 43 -29 78 -24 -12 -16 64 54 -34 52 -15 -25 -7 -20 -37 80 -6 83 61 71 -17 -44 -3 -19 67 68 -2 -49 77 -18 79 -43 -46 88 -8 -60 86 -23 -53 -50 -72 -30 -54 91 -22 -57 -9 -32 93 -83 -5 -35 -62 -74
right_child=1 3 5 4 8 18 13 19 9 26 17 37 40 51 23 33 60 41 55 21 44 22 32 28 -26 -27 39 42 59 36 89 -33 50 90 -36 56 -38 -39 -40 -41 -42 73 63 -45 74 -47 -48 69 81 -51 -52 57 84 -55 -56 87 -58 -59 70 -61 94 -63 -64 -65 -66 -67 -68 -69 -70 -71 82 -73 95 -75 -76 -77 -78 -79 -80 -81 -82 85 -84 -85 -86 -87 -88 -89 -90 -91 -92 -93 -94 -95 -96 -97
leaf_value=-0.22257960270748151 -0.21684886251096508 -0.21291228592882966 -0.23045770154339898 -0.20464951971766118 -0.20181390840009564 -0.237056081168351 -0.22619630348739844 -0.20965632248439067 -0.20856762424152758 -0.21383336634773628 -0.21907118425486927 -0.23991313027752986 -0.20555439384201524 -0.21801662851706916 -0.22617070509018272 -0.21089040101881698 -0.21422935005487992 -0.21022593432942377 -0.21918735383250121 -0.20754569852002042 -0.22110422073590139 -0.20562388371188284 -0.21721925111407214 -0.22186732495997957 -0.20554701266673753 -0.21762431244366875 -0.22057789555712309 -0.22124026548632414 -0.21553297781474307 -0.21964011429029168 -0.21153641506052215 -0.20867353978682637 -0.20965138285326557 -0.20659522933262706 -0.23344575144762258 -0.21515184209127991 -0.21068119306166866 -0.24977399143189999 -0.21253958831025949 -0.21305132651475206 -0.2034180142635075 -0.21017164599818525 -0.21669617589096637 -0.21523498381456407 -0.2132213943127492 -0.21169612055617598 -0.21458500991140197 -0.21797892980870853 -0.20791019756177712 -0.22787500203397232 -0.20532016851070345 -0.21158705781626833 -0.21400327719698783 -0.21752717541084943 -0.2295744151074986 -0.22671084007992606 -0.20972891053658965 -0.21362903907157743 -0.20565626742944496 -0.20957931544583427 -0.20993431848860367 -0.21748015175249399 -0.21546585118296385 -0.2120597158569317 -0.20834796911349107 -0.21269080469889662 -0.21522228537005833 -0.21581888335778193 -0.22347708835423602 -0.22217388987547063 -0.20593090750461845 -0.20958141346711792 -0.20316440691289056 -0.20676847880998511 -0.21716665942672106 -0.21193818683235421 -0.22144687321856821 -0.20398463151720975 -0.22344082068339785 -0.20840014354546166 -0.2082915599437116 -0.20400586696056822 -0.20365173827260014 -0.2122788217125805 -0.21099966180844765 -0.2070293692060563 -0.21723916004256835 -0.22242080421229482 -0.2069336640672978 -0.20885570976958862 -0.20776849750881288 -0.2062752084525307 -0.2024457322485933 -0.20500358781359154 -0.21117468594256747 -0.20462578524854183
leaf_weight=43.45773708820343 67.749686658382416 52.514400899410248 41.648493707180023 53.839220941066742 171.2828117609024 68.420543193817139 56.763799905776978 46.900177299976349 2224.1810796260834 161.83351063728333 216.10662150382996 110.23429483175278 2475.1198406815529 48.311281859874725 64.399759232997894 79.6927290558815 47.11605978012085 177.87434923648834 64.349005401134491 54.028140544891357 42.720193207263947 144.84000903367996 55.834380507469177 64.549153327941895 738.32714837789536 44.00748747587204 53.053763031959534 165.60137450695038 56.592262089252472 168.86887788772583 48.860181152820587 502.01273971796036 461.09079390764236 80.167533338069916 52.829157412052155 45.984668552875519 75.714411199092865 52.896841287612915 66.410611093044281 142.88522511720657 756.27137696743011 62.86454439163208 43.886187374591827 108.00597983598709 75.14106547832489 670.67900842428207 151.42094188928604 80.976692855358124 79.39677619934082 85.378348410129547 93.399630725383759 46.246129393577576 57.166117072105408 561.65885853767395 42.302542507648468 46.620847284793854 59.023472487926483 44.740496218204498 433.27556002140045 66.775660395622253 46.915502548217773 66.389355719089508 54.929922878742218 95.047974705696106 71.59211802482605 397.57693237066269 82.425942420959473 51.780556917190552 60.019250750541687 73.969561398029327 77.832609236240387 47.110973358154297 52.729240953922272 146.32689940929413 50.292935490608215 51.199430346488953 50.72066193819046 350.51718407869339 48.327843129634857 104.11791795492172 162.04683399200439 139.33992218971252 1766.8744246959686 81.463000953197479 92.308246493339539 84.231678426265717 43.953771948814392 45.679769217967987 53.13211989402771 46.446392893791199 88.156924843788147 51.475520968437195 144.45820063352585 69.67739063501358 45.62128883600235 49.465733766555786
leaf_count=55 83 63 56 61 190 95 74 55 2586 195 269 155 2820 60 84 94 57 209 80 62 54 165 69 82 841 54 67 209 69 211 58 584 540 92 72 56 89 79 79 171 849 74 54 131 90 796 183 100 92 112 106 55 69 692 56 61 69 54 494 78 55 82 67 113 83 475 100 63 77 94 89 55 59 168 62 61 64 395 62 121 188 157 1987 97 109 97 54 58 61 54 102 59 161 79 54 56
internal_value=-0.209775 -0.208849 -0.226135 -0.20744 -0.206771 -0.221846 -0.212627 -0.213119 -0.2061 -0.206954 -0.211319 -0.237743 -0.20637 -0.215361 -0.215546 -0.212501 -0.215941 -0.21266 -0.22741 -0.211326 -0.214887 -0.210573 -0.209708 -0.217237 -0.207806 -0.223516 -0.21114 -0.218543 -0.216119 -0.214358 -0.215734 -0.209976 -0.210743 -0.208903 -0.229106 -0.217178 -0.215754 -0.243261 -0.217515 -0.215113 -0.205053 -0.210843 -0.21714 -0.218827 -0.217978 -0.212163 -0.217199 -0.221898 -0.207198 -0.231385 -0.2089 -0.211729 -0.21373 -0.218023 -0.23416 -0.222601 -0.212445 -0.210048 -0.203951 -0.212375 -0.213059 -0.214321 -0.212644 -0.213789 -0.210166 -0.211907 -0.217483 -0.218719 -0.219993 -0.220124 -0.204093 -0.212068 -0.20598 -0.207926 -0.215036 -0.209802 -0.223765 -0.204893 -0.220819 -0.206765 -0.209116 -0.206016 -0.203755 -0.213612 -0.212261 -0.205413 -0.219342 -0.224612 -0.208301 -0.210551 -0.206634 -0.204662 -0.203318 -0.205858 -0.210711 -0.203951
internal_weight=17898.5 16947.5 950.978 12748.6 11299.2 691.56 1449.4 4198.84 9853.47 7053.68 1445.77 259.418 6193.9 970.845 1789.99 634.6 338.809 1247.48 352.751 2408.85 411.668 1997.18 1632.16 1155.39 2962.51 85.656 859.785 520.026 936.047 365.022 462.834 663.846 1281 372.625 96.2869 731.216 310.994 163.131 235.279 195.939 3231.39 784.643 412.542 273.607 260.436 726.513 367.528 219.346 478.55 196.101 554.49 450.819 197.786 626.208 110.723 156.65 105.008 253.033 2799.78 204.831 253.153 160.616 134.623 138.934 124.107 575.451 261.975 179.549 127.769 154.946 2628.5 94.227 351.153 209.191 125.434 151.232 107.484 783.793 135.002 248.958 208.293 354.444 1844.71 138.055 149.474 275.047 86.674 92.3006 100.032 95.3066 238.002 190.815 198.297 149.845 92.5368 102.195
internal_count=20977 19741 1236 14711 12980 875 1731 5030 11268 8113 1712 361 7096 1180 2178 757 413 1490 462 2852 499 2353 1912 1421 3427 110 1017 645 1143 441 564 779 1511 434 127 899 379 234 290 238 3669 926 507 340 322 865 452 278 551 263 646 535 238 774 151 199 125 297 3155 244 303 194 161 167 146 684 323 223 160 194 2965 112 401 242 152 177 138 889 170 286 243 405 2076 166 178 313 108 119 116 112 273 216 222 171 109 115
is_linear=0
shrinkage=1


Tree=1
num_leaves=101
num_cat=0
split_feature=13 4 13 1 11 1 4 1 1 13 13 1 0 1 7 13 13 0 1 1 1 7 11 5 9 0 11 11 8 1 0 12 13 1 9 13 11 0 8 13 0 9 6 0 11 4 5 11 11 13 11 3 0 13 3 8 11 9 2 8 0 2 9 4 14 14 0 6 13 9 5 2 3 11 5 0 11 14 13 0 8 3 0 9 8 2 2 8 8 3 14 6 6 4 9 0 5 5 3 5
split_gain=179.834 69.5563 43.711 26.3905 22.9701 21.9946 16.682 10.7156 10.687 10.3595 8.31667 8.35609 8.22243 7.40995 6.69542 6.17484 6.15054 6.13301 6.12025 12.6912 5.61185 5.22571 4.75315 4.63881 4.3686 4.16536 3.55736 3.28398 3.09541 3.02424 2.79942 2.70508 2.69927 2.58555 2.51001 2.83466 2.21837 2.13427 2.30283 2.0591 2.0461 1.56632 2.57881 1.51232 1.47839 1.39171 1.23553 1.19326 1.17793 1.13694 1.08383 1.02687 1.00083 0.964159 0.931048 0.902679 0.896962 1.11956 0.885389 0.857838 1.20289 0.851367 0.782913 0.724115 0.696829 0.579613 0.542563 0.490257 0.473449 0.455533 0.457453 0.431956 0.531316 0.42142 0.41308 0.396607 0.374668 0.36977 0.366887 0.36571 0.357373 0.357188 0.329703 0.306002 0.372981 0.288334 0.283432 0.264436 0.379322 0.260023 0.236475 0.355725 0.373965 0.228023 0.195404 0.175053 0.153873 0.108565 0.073868 0.0690117
threshold=0.61721611721611735 22.605000000000004 0.26491228070175443 2.5000000000000004 2.0150000000000001 1.0000000180025095e-35 20.545000000000005 2.5000000000000004 2.5000000000000004 0.97619047619047628 0.97619047619047628 2.5000000000000004 13.500000000000002 1.0000000180025095e-35 0.69579799607504789 0.11437908496732027 0.94590643274853814 12.500000000000002 2.5000000000000004 1.0000000180025095e-35 2.5000000000000004 0.3582470415969225 2.0950000000000002 18.465000000000003 1.1436256255431203 18.500000000000004 2.7050000000000005 2.3050000000000002 0.18826934677175552 4.5000000000000009 17.500000000000004 6.5000000000000009 0.43875000000000003 2.5000000000000004 -1.0155106459363623 0.82843137254901966 2.2951641507292435 18.500000000000004 0.13747450895802674 0.81101190476190488 17.500000000000004 0.63519901526716105 1.8750000000000002 15.500000000000002 1.4850000000000001 23.195000000000004 20.685000000000006 2.8850000000000002 1.5250000000000001 0.47493734335839605 2.1550000000000007 0.80665863892984857 18.500000000000004 0.82843137254901966 0.79227403531659246 0.32119839092366981 1.6150000000000004 -0.32776331922128371 0.80711215556522686 0.20394849132144369 16.500000000000004 0.80817649865325025 0.035787853232737282 21.695000000000004 10.250000000000002 1.9128787878787883 9.5000000000000018 1.6199999999999994 0.70294117647058829 1.2782993150754975 20.915000000000003 0.80847841164452194 0.80392125043355167 1.7650000000000003 21.365000000000006 20.500000000000004 2.5350000000000006 1.3693181818181819 0.43303571428571436 19.500000000000004 0.29847269710687557 0.80632406898863274 19.500000000000004 1.1193461636704587 0.78682853001949038 0.80805990296998609 0.80807792344364626 0.068518317203728071 0.22408891201179573 0.80682271455618293 0.9553571428571429 3.6249999999999987 2.0250000000000008 19.425000000000004 1.1071832616870314 18.500000000000004 21.455000000000002 21.435000000000006 0.80747282440902057 22.075000000000003
decision_type=2 2 2 2 2 2 2 2 2 2 2 2 2 2 2 2 2 2 2 2 2 2 2 2 2 2 2 2 2 2 2 2 2 2 2 2 2 2 2 2 2 2 2 2 2 2 2 2 2 2 2 2 2 2 2 2 2 2 2 2 2 2 2 2 2 2 2 2 2 2 2 2 2 2 2 2 2 2 2 2 2 2 2 2 2 2 2 2 2 2 2 2 2 2 2 2 2 2 2 2
left_child=2 6 15 23 7 12 18 68 66 29 11 63 97 17 26 64 30 -12 19 52 62 32 53 25 41 -4 -11 43 -17 39 -9 -23 82 -30 89 56 54 38 -19 -10 -31 42 -14 -22 -32 -33 -46 -16 -34 51 81 74 59 80 -37 77 -36 -58 -43 60 -2 69 -15 67 -1 -29 -7 -8 -3 70 -18 72 -26 -51 -25 -64 -57 -24 -53 -55 -13 -21 -5 84 -68 -65 95 -50 -89 -20 -70 92 -92 -38 -47 -52 -85 -6 -88 -73
right_child=1 4 3 21 5 8 10 16 9 14 13 22 24 20 47 28 61 37 34 50 27 31 55 49 71 -27 -28 65 33 40 44 45 48 -35 35 36 93 -39 -40 -41 -42 58 -44 -45 46 94 -48 -49 87 73 86 78 -54 79 -56 76 57 -59 -60 -61 -62 -63 75 85 -66 -67 83 -69 90 -71 -72 99 -74 -75 -76 -77 -78 -79 -80 -81 -82 -83 -84 96 -86 -87 98 88 -90 -91 91 -93 -94 -95 -96 -97 -98 -99 -100 -101
leaf_value=-0.040804294723194377 -0.0049434194478031887 0.00068924634191090326 -0.0053651753159948022 -0.028115197928317518 0.0048364955331775131 0.0076700727654957718 0.0015778026767961958 -0.013235775376279291 -0.0090717454010888817 0.0015288245698438379 0.0053631789113935896 -0.013703472064474538 -0.0091761913424611621 0.0011651923400044612 0.0043353040369738301 -0.029424793891276078 0.00094989998846068009 -0.0017012746537507608 -0.015361390072172377 0.0008691631501944574 0.0010546363960260573 -0.0066161790722942208 -0.003296393317699273 -0.0038614525971933989 0.00030211779095654014 -0.018320243958317529 0.0046777942314909964 0.0034874777282156242 -0.01223849238076659 -0.0045401325931095212 -0.010856797273807027 -0.010226441200183234 -0.021934841273771231 -0.023883175067921449 -0.015339561972621161 -0.0097221438040334222 -0.0030674019178051756 -0.00080607035006005916 -0.0083357262855906829 -0.002283179878528854 0.0015485164039847114 -0.00084334968488324091 -0.0013715155689961254 -0.0016959123956275064 -0.0017785520675815516 -0.019152517850672235 -0.0065834777208872309 0.0061025471734242522 -0.012210348806012412 -0.001445220724836336 0.0031292182670859918 -0.0086038740754400284 -0.0044873674836410967 -0.0093014125604736417 -0.0060646056932530642 -0.0022356556005585539 -0.0064001081844030083 -0.012970244129791961 -0.0038883040559322219 -0.013322191447383379 -0.011168607829535429 -0.0044615831659613713 0.0054198817770265383 0.0052149027074796708 -0.031533692850511705 -6.6505482604015061e-05 0.0054565836802039809 -0.0029883118386059893 0.0056298438568849552 0.0021559426540112437 -0.0020448624459681042 -0.0015303268289229477 0.0037065937935462732 0.0021169955434169082 0.00010796847886556772 0.002280694812044837 0.0015351136924119078 -0.0072181023562360846 -0.0043963377578526211 -0.0054677841327876878 -0.010223952784539017 -0.0028038128250956009 -0.021948838769038973 0.0047514576866594018 0.0036828153261671982 0.0018394756926002173 0.0037571835042918985 -0.01863575605638142 -0.01350255460005447 -0.011001650254310651 0.0026651543613242018 0.00068719477559429671 0.0057570014412013691 -0.00017106487409813473 -0.014906325107901901 0.00058037707752233445 0.0062734074917477328 0.0069527746453927775 0.005598800133555906 0.00011833123493155552
leaf_weight=39.494740843772888 68.295547902584076 90.766674339771271 70.414732813835144 42.062735676765442 47.74732494354248 174.64740532636642 49.3285311460495 80.456810116767883 72.677745223045349 2181.6775436401367 65.245140314102173 75.130183398723602 151.74668854475021 76.582577466964722 2184.2629448771477 58.352840840816498 87.71501749753952 78.525304317474365 42.050905704498291 55.75118499994278 343.73098242282867 73.270772218704224 53.322017431259155 44.619746804237366 108.50316947698593 42.577363133430481 607.89168804883957 309.50129622220993 41.510249018669128 74.111025452613831 59.003379940986633 53.264165163040161 41.603806376457214 44.302311480045319 41.048072516918182 101.90305602550507 46.601076543331146 85.864477515220642 292.44055372476578 183.03898584842682 429.42316460609436 176.37563699483871 73.59908264875412 1082.6126876473427 96.73325651884079 56.742779791355133 198.398004591465 672.72886276245117 42.194015979766846 70.829428017139435 74.330294251441956 47.977115154266357 47.964611887931824 57.435797810554504 585.19812911748886 67.039803862571716 67.506174743175507 53.549790382385254 389.94996362924576 61.207373857498169 78.046100437641144 76.66443395614624 338.33438724279404 59.438018679618835 44.139441311359406 62.223227202892303 1327.8385463953018 46.702092468738556 48.161056280136108 58.095555305480957 193.24212723970413 60.782191514968872 109.52053838968277 77.991149246692657 72.581534206867218 52.019768893718719 46.653168261051178 54.261633455753326 44.662551462650299 63.184710800647736 109.44493675231934 56.739458441734314 48.264764666557312 105.23938220739365 178.18702793121338 50.987204849720001 57.859476864337921 47.035228252410889 44.879741311073303 42.584984362125397 133.2491170167923 52.248213231563568 69.547969043254852 77.522012948989868 45.364896833896637 47.096455931663513 884.23613852262497 114.2937176823616 55.135068893432617 47.844840705394745
leaf_count=61 83 106 86 60 54 193 57 104 91 2528 73 97 190 89 2479 84 102 93 55 65 400 90 64 54 127 57 688 354 53 90 75 67 57 62 54 128 56 101 364 218 498 208 87 1284 115 76 244 753 54 84 85 60 58 72 717 80 83 69 470 79 99 93 381 67 64 73 1494 56 54 67 230 72 125 90 85 60 54 67 54 77 138 68 66 119 203 59 66 63 58 54 153 61 78 91 59 55 989 127 62 56
internal_value=9.67605e-06 0.000991049 -0.0136934 -0.0103594 0.00257291 0.00314083 -0.00254696 -0.00211938 0.00377734 0.00296303 -0.0011205 -0.00456768 -0.0013452 -0.000202495 0.00350374 -0.0278472 -0.00444934 -0.00409274 -0.00557699 -0.00265729 0.000708035 -0.0161862 -0.00702521 -0.00418447 -0.00248777 -0.0102134 0.00222468 -0.000219167 -0.0234574 -0.00103203 -0.00747504 -0.0121949 -0.0197147 -0.0187202 -0.00726346 -0.00673437 -0.00583605 -0.00563606 -0.00684643 -0.00423103 0.000562674 -0.00395753 -0.00648617 -0.00102173 -0.00610597 -0.0147278 -0.00500507 0.0047528 -0.0170119 -0.00207472 0.00186752 -0.00371642 -0.00866293 -0.00996423 -0.00663812 -0.00305768 -0.0109994 -0.00949561 -0.00294127 -0.00990393 -0.00836269 -0.00131674 0.0042444 0.00146463 -0.0358398 0.00279247 0.00572757 -0.000524133 0.00277544 -0.000482181 -0.00106723 0.00100472 0.00199133 0.000314094 -0.00158601 0.0049534 -0.000773627 -0.00519634 -0.00644861 -0.00748288 -0.0116691 -0.000832719 -0.0247965 0.00558867 0.00524452 0.00354914 0.0033348 -0.0150617 -0.0162068 -0.0129216 0.00354191 0.0030993 0.00376079 -0.00153092 -0.0172495 0.00218449 0.00610391 0.00603049 0.00462309 -0.000698161
internal_weight=17975.1 16781 1194.14 966.337 11600.6 10356.3 5180.4 1244.28 9075.96 6405.81 3520.01 732.928 1280.36 2787.08 5646.56 227.8 850.309 522.075 1660.39 602.426 2265 494.683 526.472 471.654 1118.32 112.992 2789.57 1798.07 144.165 759.251 434.591 228.643 266.04 85.8126 1057.96 973.328 811.224 456.83 370.966 255.717 503.534 791.671 225.346 1426.34 354.135 155.372 295.131 2856.99 175.713 358.662 346.912 209.841 255.514 305.196 687.101 221.277 162.104 121.056 566.326 207.549 146.342 415.717 466.937 206.456 83.6342 371.725 2670.15 96.0306 393.973 339.053 280.957 326.651 218.024 148.821 117.201 390.354 113.693 107.584 92.6397 120.621 184.575 112.491 90.3275 2495.5 1506.03 110.425 234.421 134.109 91.915 84.6359 303.206 255.045 202.797 124.123 102.108 121.427 989.476 162.041 112.995 108.627
internal_count=21072 19528 1544 1220 13341 11859 6187 1482 10343 7345 4160 888 1516 3272 6448 324 1030 631 2027 720 2641 650 649 570 1335 143 3216 2111 199 897 538 292 358 115 1307 1198 992 558 457 309 588 955 277 1684 434 202 359 3232 232 427 401 253 319 384 845 265 206 152 678 261 182 492 530 239 125 427 2998 113 452 399 332 380 252 174 139 441 134 131 114 149 235 133 126 2805 1697 126 268 175 121 109 346 292 231 147 135 140 1108 181 128 128
is_linear=0
shrinkage=0.0367825


Tree=2
num_leaves=104
num_cat=0
split_feature=13 4 13 11 1 1 1 4 13 13 1 7 0 1 1 12 1 1 13 8 9 1 5 8 13 11 1 1 11 11 11 0 12 11 0 9 10 0 0 7 11 11 8 0 3 11 11 8 3 12 5 8 13 13 13 4 0 5 0 10 0 1 14 3 6 13 13 12 5 6 6 8 12 9 7 7 6 4 8 0 14 8 2 0 6 9 11 3 9 14 5 11 5 6 4 3 3 4 2 11 4 6 6
split_gain=178.607 63.9067 35.7579 26.1409 22.5407 18.504 14.1693 13.4588 9.6576 9.21507 8.30798 8.24586 8.17093 7.22597 8.70616 5.09566 6.44438 6.13356 4.83337 4.77855 4.67138 4.50269 4.44966 4.42506 3.72183 3.61632 3.3185 2.94575 2.84613 2.80714 2.68976 2.44168 2.25181 2.22568 2.15076 2.07261 2.03363 2.0233 1.94425 1.83375 1.77884 1.74517 1.66336 1.50808 1.47358 1.33094 1.28134 1.2301 1.20445 1.15116 1.12988 1.11654 1.04595 1.04399 1.03419 0.993602 0.944965 1.41039 1.24955 0.892458 0.876752 1.00088 0.848992 0.817215 0.773003 0.766986 0.831556 0.665571 0.655648 0.635108 0.603085 0.596814 0.582257 0.569949 0.534697 0.533997 0.686767 0.472957 0.459862 0.444658 0.439634 0.408168 0.385235 0.37612 0.373745 0.357347 0.33763 0.308408 0.293654 0.292036 0.289834 0.270392 0.231381 0.212001 0.210653 0.153626 0.150127 0.142321 0.172756 0.115759 0.108541 0.0735317 0.0171985
threshold=0.56696428571428581 22.365000000000006 0.26491228070175443 2.2050000000000005 1.0000000180025095e-35 2.5000000000000004 2.5000000000000004 20.605000000000004 0.94281045751633996 0.11437908496732027 2.5000000000000004 0.64414320154291238 7.5000000000000009 2.5000000000000004 1.0000000180025095e-35 1.0000000180025095e-35 1.0000000180025095e-35 2.5000000000000004 0.82843137254901966 0.1999390758027341 0.77070701197586522 2.5000000000000004 19.605000000000004 0.18061526163528399 0.82247899159663873 2.1450000000000005 4.5000000000000009 2.5000000000000004 2.7150000000000003 2.2951641507292435 2.2951641507292435 13.500000000000002 3.5000000000000004 1.905 18.500000000000004 1.2279261449739307 0.087889069575574935 17.500000000000004 15.500000000000002 0.041823247954360536 1.7250000000000003 2.1750000000000003 0.027949310627487765 18.500000000000004 0.80662132022588573 1.4650000000000001 2.7150000000000003 0.64144160696899866 0.79227403531659246 3.5000000000000004 22.155000000000005 0.13747450895802674 0.81980519480519487 0.46862745098039221 0.73508771929824568 23.355000000000004 18.500000000000004 16.315000000000001 16.500000000000004 0.089855324649497789 17.500000000000004 4.5000000000000009 10.250000000000002 0.80291825784428672 3.8600000000000008 0.82247899159663873 0.84807692307692317 5.5000000000000009 23.865000000000006 2.5049999999999994 0.84000000000000175 0.2490642457155425 3.5000000000000004 -0.26593752671894644 0.12790761207882079 0.049682404878153404 1.76 24.105000000000004 0.54159528226807996 20.500000000000004 1.738636363636364 0.32119839092366981 0.80640410806021434 9.5000000000000018 1.2150000000000001 0.035787853232737282 1.8150000000000002 0.80194457482204662 0.36662178902550796 1.4580419580419581 17.385000000000002 1.7650000000000003 16.285000000000004 7.5900000000000016 24.305000000000003 0.8064107246818355 0.80652294987307671 19.335000000000004 0.80802407873075521 1.8050000000000004 23.845000000000002 1.4500000000000013 2.0250000000000008
decision_type=2 2 2 2 2 2 2 2 2 2 2 2 2 2 2 2 2 2 2 2 2 2 2 2 2 2 2 2 2 2 2 2 2 2 2 2 2 2 2 2 2 2 2 2 2 2 2 2 2 2 2 2 2 2 2 2 2 2 2 2 2 2 2 2 2 2 2 2 2 2 2 2 2 2 2 2 2 2 2 2 2 2 2 2 2 2 2 2 2 2 2 2 2 2 2 2 2 2 2 2 2 2 2
left_child=2 7 9 6 12 19 52 13 26 62 71 24 -5 14 56 16 31 64 75 -4 36 85 53 -11 47 65 49 -25 -26 39 38 -9 46 37 -24 68 50 -28 -23 42 70 54 -20 51 78 -36 -13 -12 -41 86 -14 -33 80 -7 -16 -46 57 58 -2 -47 77 -62 -1 -37 72 88 -67 -35 -22 -38 -10 79 -17 95 -32 84 -77 -42 -21 93 89 90 -54 -73 -15 -18 -8 -85 -19 91 -27 -3 -87 -6 -82 -31 -56 101 -99 -84 -72 -43 -101
right_child=1 3 5 4 10 22 8 15 40 23 11 32 20 18 41 17 21 25 29 44 35 30 34 27 28 81 33 -29 -30 73 74 43 -34 67 45 63 69 -39 -40 48 60 97 -44 -45 55 59 -48 -49 -50 -51 -52 -53 82 -55 96 -57 -58 -59 -60 -61 61 -63 -64 -65 -66 66 -68 -69 -70 -71 100 83 -74 -75 -76 76 -78 -79 -80 -81 94 -83 99 87 -86 92 -88 -89 -90 -91 -92 -93 -94 -95 -96 -97 -98 98 -100 102 -102 -103 -104
leaf_value=-0.043432374156560524 -0.0027951354605855933 0.00013570463707648827 -0.012693551669128495 0.0063802176236764192 0.0056906076807767322 -0.026836393090376318 -0.01132089418659526 0.0017793464875892975 -0.00614225370506148 -0.030667859523622724 -0.0068883166953185746 0.0038930689846100237 -0.0088376602833319211 -0.011832608734982715 -0.0056862559995868285 0.0044970598058287547 0.0020586149066578398 -0.0098636473377798888 -0.0050057689320061518 -0.0024406221236297813 -0.0011606576870916232 0.001383725297560535 -0.019529202824022672 -0.01164349691831492 0.0012179655439584444 -0.0021397065990591772 -0.013367587903528976 -0.023452349971529993 0.0040623183021027331 -0.0042163508819338079 0.0001493331832112578 -0.0029425662170671891 -0.0021936624581623534 -0.0012324229039852547 -0.016923262525419949 -4.3409203990716087e-05 0.00029732485520226389 -0.0057947530656563464 -0.0020429147883763679 -0.0092486753529590644 -0.0045763350998768472 0.0012190588047994511 -0.011215822414744243 -0.0012050705069846545 -0.0086695194729719816 -0.012180971989748521 0.0054471173376161395 -0.00044348137420258007 -0.0047098023377084818 -0.01535314418155226 -0.0030392598932516219 -0.0080528527109588865 0.002580342549654344 -0.019183698543317116 0.0016121103134003564 -0.0023614963804865735 -0.0032658442857102631 -0.012454794661515285 -0.0091385689902410937 -0.0062553625999600812 -0.00097799435696585232 0.0023429548360182407 -0.03318221983745364 0.0039815665661310611 -0.0022466756508737165 -0.0049289803394154666 -0.01052379069552653 -0.0055157945569402709 -0.0039773647739405824 -0.003902123715167803 -0.00073937140116002128 0.0073679509930638081 0.00040252987592199189 0.0013900835857975577 0.0035147378618055176 -0.010490698579875418 -0.016055427333614872 -0.00037757427469131433 0.0012675256414352806 0.0016328037255415461 -0.0016375673367566958 -0.00055463453710094242 0.0043826652153957516 0.0050046144393359115 -0.0074810460205922691 0.0028062594629623869 -0.0074594447020406495 0.0059289670163934433 -0.013656291626001271 0.0046870174726544728 -0.0056618588843921859 0.0034157015150794862 0.0052234757121299357 0.003496261410440345 0.0012291836773652256 -0.0015637581600981675 -0.00090819600684683376 0.0027966062706843865 0.0051864052208353143 0.005419624256668692 -0.002960247930640396 0.0029476600203491789 0.0065658841245694677
leaf_weight=37.732593357563019 64.913013696670532 56.443954229354858 78.387939274311066 153.39197033643723 127.03597223758698 60.513421177864075 43.65757155418396 58.290897727012634 72.288848459720612 50.499959945678711 83.324119031429291 2344.2783401608467 191.67425245046616 47.223133981227875 47.958619177341461 73.398246109485626 74.559983670711517 74.81162303686142 75.123674094676971 73.440079987049103 444.82368236780167 288.75069969892502 71.113172709941864 48.986256003379822 2068.9109883904457 49.295241832733154 43.424895226955414 47.152205765247345 601.60131931304932 46.160097002983093 70.911677956581116 65.19056624174118 56.450509905815125 183.06273829936981 46.787850439548492 109.11489570140839 60.514545440673828 273.90798228979111 836.61997038125992 82.418593347072601 55.351007223129272 50.928735494613647 172.37811946868896 70.356016039848328 66.983593046665192 82.374891519546509 1032.9218048453331 53.671260476112366 463.27420914173126 44.668198704719543 45.896700859069824 217.35105043649673 69.803088068962097 50.150035321712494 46.614867687225342 45.166538417339325 51.496357679367065 66.405581533908844 78.377902448177338 45.80554872751236 180.51215469837189 313.39844983816147 41.379916906356812 136.43556559085846 57.705941140651703 75.145664989948273 50.415141463279724 50.40112316608429 133.27598255872726 121.67617809772491 45.841118693351746 165.2949133515358 84.796258926391602 56.908691644668579 239.30656969547272 52.448702752590179 65.684450089931488 60.500039041042328 76.633694350719452 72.907431900501251 49.770448923110962 71.34474104642868 85.695737659931183 854.86822992563248 51.2825728058815 57.651794135570526 82.297783017158508 1317.7389962077141 49.879962503910065 61.089638948440552 52.104880750179291 49.202060580253601 247.47309982776642 101.21846622228622 57.888683617115021 46.307627320289612 49.811966419219971 76.764130771160126 66.727181732654572 67.70017284154892 45.038314282894135 56.866105854511261 94.412480771541595
leaf_count=61 78 66 102 170 142 87 56 67 89 75 103 2662 241 61 59 83 86 95 92 88 527 335 97 63 2401 59 57 67 682 56 83 78 68 217 63 128 71 337 996 104 67 59 220 83 84 107 1158 63 565 59 55 272 80 68 54 54 62 86 99 57 213 361 62 155 69 92 64 62 161 147 54 182 99 66 273 67 87 71 89 84 59 84 97 961 64 66 102 1471 65 69 64 56 278 115 67 55 59 88 75 76 54 65 105
internal_value=8.73316e-05 0.000940842 -0.0155403 0.00232627 0.00308856 -0.0115473 -0.0014131 -0.00271288 -0.00332453 -0.0280215 0.00377169 0.00304059 -0.00123082 -0.00518537 -0.00213979 -0.00115147 -0.000318645 -0.00400866 -0.00693027 -0.00546989 -0.00223818 0.000622894 -0.017252 -0.0228027 0.00156414 -0.00656897 -0.00636173 -0.0179058 0.00186365 -0.00579779 -0.000311748 -0.00439701 0.00424594 -0.00500171 -0.0145459 -0.000645897 -0.00534628 -0.00694589 -0.00114746 -0.00665324 -0.000500538 0.00127359 -0.00922627 -0.00559979 -0.00300605 -0.0122194 0.00437101 -0.0040394 -0.00546411 -0.0106989 -0.00757163 -0.00679442 0.00332903 -0.0232299 -0.00173231 -0.00593271 -0.00717109 -0.00836946 -0.00636308 -0.0101354 0.00042915 0.00110715 -0.0379154 0.00211175 0.000846774 -0.00935642 -0.00738296 -0.00232386 -0.00181984 -0.00255858 -0.00373412 0.00549787 0.00226959 -0.00136149 0.00264109 -0.0117451 -0.0135658 -0.00226079 -0.000653643 0.0039693 0.0017547 -0.00265275 0.00478745 0.00570257 -0.00978085 0.00411682 -0.00900888 0.00556766 -0.0114093 0.00284352 -0.00390081 0.00176257 0.00472827 0.00470721 -5.36939e-06 -0.002819 0.000197453 0.00312896 0.00390776 0.00548397 -0.00197696 0.00219886 0.00608866
internal_weight=17967.9 17044.8 923.108 12363.4 10277 697.357 2086.36 4681.43 1494.35 225.751 8880.22 6241.16 1396.8 1816.07 656.864 2865.36 2226.46 638.898 1159.21 340.612 1243.41 1815.27 356.745 146.638 2807.51 422.997 721.42 96.1385 2670.51 942.571 1435.59 411.189 3433.65 550.797 246.081 823.65 419.762 317.333 1125.37 793.195 772.93 395.672 247.502 352.898 262.224 174.968 3377.2 136.995 545.693 170.624 237.571 282.542 592.006 110.663 144.385 112.15 261.193 209.696 143.291 128.18 609.762 493.911 79.1125 245.55 215.9 250.252 125.561 233.464 578.1 182.191 163.168 2639.06 158.195 149.376 310.218 216.639 118.133 115.851 150.074 301.162 274.395 172.745 317.611 2337.9 98.5057 379.685 125.955 2172.61 124.692 166.736 101.4 105.646 305.125 228.254 107.659 92.4677 96.4268 251.286 143.491 247.808 90.8794 107.795 162.113
internal_count=21057 19833 1224 14221 11747 896 2474 5612 1799 328 10092 7137 1655 2221 784 3391 2617 774 1437 417 1485 2117 479 205 3249 523 890 130 3083 1158 1687 500 3888 673 324 971 514 394 1331 981 909 459 312 433 315 227 3820 166 669 217 296 350 675 155 172 138 325 263 177 164 712 574 123 283 251 316 156 279 688 218 197 2955 182 177 356 279 154 138 177 341 317 207 358 2614 125 430 158 2432 160 191 123 122 344 257 126 111 113 287 163 278 108 124 181
is_linear=0
shrinkage=0.0367825


Tree=3
num_leaves=94
num_cat=0
split_feature=13 4 13 11 1 1 1 1 12 4 0 7 11 8 13 1 1 9 1 13 13 1 1 7 11 1 1 11 0 14 11 9 12 0 11 11 8 11 0 0 11 13 2 0 4 0 11 3 3 0 2 3 14 0 13 4 2 6 11 2 0 9 4 2 6 7 14 0 9 9 2 3 13 3 3 5 11 9 4 6 6 4 8 0 5 14 11 12 3 2 11 10 9
split_gain=167.381 59.2979 31.8726 24.5981 19.8769 18.8559 13.268 10.6308 11.2621 9.58317 9.53826 7.00936 6.90397 6.80115 6.59149 6.48821 7.31848 6.0975 4.3193 4.01563 3.60901 6.2038 3.89566 3.59282 3.21324 3.0215 2.69632 2.68369 2.26591 2.17193 2.16273 2.13743 2.11506 2.01976 1.84927 1.81907 1.69961 1.6879 1.64363 1.58854 1.42701 1.3688 1.23971 1.19662 1.29998 1.14952 1.04655 0.930146 0.888751 0.864863 0.824261 0.931787 0.818429 0.755114 0.751192 0.681321 0.680666 0.672683 0.636709 0.696921 0.590983 0.58427 0.52608 0.517293 0.632299 0.511186 0.732688 0.502707 0.4834 0.474269 0.461972 0.42809 0.453095 0.380802 0.379068 0.370246 0.316632 0.310312 0.309887 0.300118 0.273614 0.270055 0.250011 0.237681 0.237415 0.219106 0.302497 0.347649 0.206795 0.330745 0.25009 0.110037 0.0802258
threshold=0.56696428571428581 22.175000000000004 0.26491228070175443 1.9950000000000003 1.0000000180025095e-35 2.5000000000000004 2.5000000000000004 2.5000000000000004 1.0000000180025095e-35 20.605000000000004 12.500000000000002 0.64414320154291238 1.5250000000000001 0.20809125936828574 0.82843137254901966 2.5000000000000004 1.0000000180025095e-35 0.64156940929484785 2.5000000000000004 0.82247899159663873 0.97619047619047628 2.5000000000000004 1.0000000180025095e-35 0.3582470415969225 2.3350000000000004 4.5000000000000009 2.5000000000000004 2.5550000000000002 17.500000000000004 1.5773809523809526 2.1750000000000003 1.1436256255431203 3.5000000000000004 13.500000000000002 2.7150000000000003 2.4950000000000006 0.20394849132144369 1.7450000000000003 15.500000000000002 17.500000000000004 2.7450000000000006 0.43875000000000003 0.80656293986904537 19.500000000000004 19.055000000000003 18.500000000000004 1.8050000000000004 0.80732627453278083 0.80652294987307671 19.500000000000004 0.80645989943911145 0.80796520543316108 3.6904761904761911 19.500000000000004 0.6858552631578948 23.375000000000004 0.80602804909227876 3.8249999999999997 1.4650000000000001 0.80817649865325025 19.500000000000004 0.20214154256421288 23.615000000000006 0.80875629224252499 2.8750000000000004 0.15286342972541259 1.1952380952380954 9.5000000000000018 -0.26593752671894644 1.4234869847043459 0.80711215556522686 0.806177555372939 0.74342105263157909 0.80704851702545988 0.80392125043355167 19.665000000000003 2.1550000000000007 0.44820358797598492 23.635000000000002 0.59000000000000175 7.1300000000000017 21.515000000000004 0.16111156090693632 18.500000000000004 17.305000000000003 2.1909090909090914 1.6950000000000001 4.5000000000000009 0.80016970185024106 0.80649551428389044 1.8050000000000004 0.078527971443894437 0.27043203653489761
decision_type=2 2 2 2 2 2 2 2 2 2 2 2 2 2 2 2 2 2 2 2 2 2 2 2 2 2 2 2 2 2 2 2 2 2 2 2 2 2 2 2 2 2 2 2 2 2 2 2 2 2 2 2 2 2 2 2 2 2 2 2 2 2 2 2 2 2 2 2 2 2 2 2 2 2 2 2 2 2 2 2 2 2 2 2 2 2 2 2 2 2 2 2 2
left_child=2 9 12 6 10 13 54 67 11 15 -5 27 52 -4 37 16 63 28 -14 85 21 57 33 41 43 32 65 -9 36 76 50 70 -10 -22 -27 38 -12 42 -28 46 -13 84 -8 44 -21 77 -16 -44 79 -25 -23 -52 -1 -39 62 -50 -32 61 -41 -60 -43 -11 -3 64 74 92 -67 -6 -26 -33 -19 80 -73 -45 -2 -20 -18 -35 -51 -15 -69 -58 -37 -78 -7 86 -17 -88 -56 -90 -91 -81 -24
right_child=1 3 5 4 7 23 14 8 25 20 17 40 18 48 39 19 29 31 75 24 22 30 26 49 68 34 35 -29 -30 -31 56 69 -34 45 -36 82 -38 53 -40 58 -42 60 47 73 -46 -47 -48 -49 55 78 51 -53 -54 -55 88 -57 81 -59 59 -61 -62 -63 -64 -65 -66 66 -68 71 -70 -71 -72 72 -74 -75 -76 -77 83 -79 -80 91 -82 -83 -84 -85 -86 -87 87 -89 89 90 -92 -93 -94
leaf_value=-0.040469542533093358 -0.01107596539845882 -0.0023625903233883147 -0.013804364581952106 0.0063414487897640055 0.0070719178745038934 -0.027394088055478671 -0.0082283081552310729 0.0010969388304828238 -0.0029638699454770569 0.0048616576037503884 -0.0026180269099172044 0.0037407217336540869 -0.013289306761478702 -0.0024454788702834231 -0.010431765201060579 -0.01313967585363676 0.00063193841995148599 -0.00083476796222324004 -0.029925934090622299 -0.0092868272768530328 0.0016903679322292234 -0.0059409399017529433 0.0037436619922023391 -0.017045365042421053 -0.0018825340056403425 -0.001093004387802909 0.0013390675750652691 0.003625434353978222 -0.0011412659748508665 -0.004320055467282982 -0.00015420354496553488 0.00042972180493967442 -0.010326222569014804 -0.0070394380810279598 0.0032832117832256179 0.00064279233540490849 -0.0097087370026550327 -0.0086477943778658136 -0.0020399932410563792 -0.0052438527078032069 0.0054511852451908623 -0.020127142271479975 -0.017993658013266248 -0.0054264723782842892 -0.0059363083031885215 -0.0013536401085393972 -0.0038204656033959377 -0.011192329329535105 -0.0066654048259255196 -0.0090627156632343327 -0.014660652687757006 -0.0087076159891178416 -0.031247094395184138 -0.0038304137558207965 0.0050825146417021721 -0.001560288459537186 -0.0030786762635959613 -0.0014385677999323946 -0.0007198099255473604 -0.0044162599235670246 -0.014311551154701247 0.0002732153543375093 0.0020676882913893109 -0.0039292502966612776 -0.0051633655723179921 -0.0014752319903857552 0.003828515861679677 0.0046935181733292483 0.0022418816734371015 0.0032239056009061981 -0.0028963079565648736 0.0025950194221749448 0.0056484217787013333 -0.0020507116498918207 -0.0071109968976947949 -0.022948788532445988 0.0038936831990559889 -0.0039573498411224111 -0.013016249952428643 0.0019493674213508553 0.0026820684323967084 -0.0066681556009692217 0.0034379678912705896 0.0015503716823423385 -0.021594404866605837 -0.013847440866131993 -0.011322558880952564 -0.0070461863397417394 0.00050962751618206033 0.0025156364176620182 0.0048396727760188244 -0.00021086980571054074 0.0052791239253930288
leaf_weight=34.149750649929047 67.698531329631805 51.922746479511261 80.837681651115417 176.60759365558624 164.03267681598663 37.864716947078705 84.041506350040436 2200.2662333846092 238.46720230579376 76.248244643211365 44.310421824455261 2425.4559659361839 47.517710149288177 45.122699558734894 44.552569448947906 41.613164484500885 83.599037289619446 207.16300982236862 39.496968328952789 250.6534315943718 55.700140774250031 76.51431131362915 128.77609938383102 44.191029369831085 81.91087406873703 445.58906733989716 242.37654095888138 748.65276062488556 62.531905591487885 64.936277568340302 50.886491119861603 207.24122363328934 52.055061936378479 194.83964884281158 166.33371222019196 46.313840746879578 212.45064389705658 73.225384831428528 783.58614283800125 49.587153017520905 900.27550309896469 56.043517827987671 42.140300989151001 71.997375428676605 399.21391826868057 68.506521224975586 61.848941683769226 59.082965910434723 71.509047269821167 56.47185343503952 41.605720579624176 112.32634365558624 60.736073195934296 80.528355836868286 70.411066830158234 47.010764181613922 43.178870916366577 56.237670660018921 377.21389174461365 68.823087453842163 49.525383949279785 48.818430066108704 62.461010336875916 57.301334381103516 77.232264697551727 54.379465043544769 54.887319326400757 1281.4072381854057 46.884478271007538 114.7746604681015 429.54676449298859 56.8013876080513 1269.6982904076576 84.654492914676666 57.533604323863983 38.2132847905159 159.82174384593964 48.312190175056458 55.44382917881012 46.679559409618378 88.5417760014534 48.510111629962921 140.51723110675812 76.227011799812317 50.318288207054138 48.390100300312042 46.325445413589478 47.055239975452423 46.432474970817566 131.15391570329666 100.63153541088104 49.998625695705414 70.725513637065887
leaf_count=56 87 62 107 195 180 56 106 2554 286 86 53 2748 63 54 57 55 98 245 60 318 64 95 146 60 98 527 281 849 74 79 60 242 67 243 190 54 270 93 934 61 1004 78 57 89 493 81 75 76 89 72 55 142 91 98 79 56 52 67 446 84 66 57 72 70 95 64 62 1438 54 131 517 65 1414 102 72 55 181 59 73 54 101 60 160 88 71 64 60 59 54 150 113 59 79
internal_value=5.38581e-05 0.000872315 -0.0151787 0.00210888 0.00267073 -0.0114181 -0.00246118 0.00325297 0.00249782 -0.00291273 -0.00132631 0.00304893 -0.0271335 -0.00532166 -0.00497264 -0.00497714 -0.00207147 -0.00244938 -0.0217021 -0.00666761 -0.00143107 -0.00400077 -0.000662865 -0.0172659 -0.00569675 -0.00131279 0.000157907 0.00174633 -0.00675815 0.00112438 -0.00669191 -0.000996902 -0.00435171 -0.00398964 0.000108119 -0.00061566 -0.00833777 -0.00900544 -0.00122468 -0.00269886 0.00420457 -0.0206639 -0.0113795 -0.00654414 -0.00724209 -0.00518427 -0.00648903 -0.0140744 -0.0023607 -0.0132129 -0.00887933 -0.0104451 -0.0346653 -0.00628327 0.00253321 -0.00449479 -0.00331067 0.00134059 -0.00180071 -0.0013447 -0.01768 0.00295134 0.000168667 -0.00667357 -0.00764775 0.00315505 0.00130845 0.00514461 -0.000569388 0.00139918 -0.00220688 0.00502475 0.00550131 -0.00374724 -0.00922838 -0.0264676 0.00240656 -0.00636313 -0.0112155 -0.000404186 0.00455866 -0.00491197 0.00258422 0.00310219 -0.0241743 -0.0114796 -0.0106938 -0.00933993 0.00343738 0.00299411 0.0035348 0.000770996 0.00428835
internal_weight=18013.7 17102.6 911.131 12896.3 11492.2 691.017 1404.06 10037.6 7177.1 4206.3 1454.63 6274.65 220.114 341.158 941.044 1763.05 644.35 1278.02 125.228 1118.7 2443.25 554.326 1888.92 349.859 935.315 902.445 1521.56 2948.92 319.293 384.584 373.022 958.726 290.522 367.359 611.923 1212.79 256.761 339.019 1025.96 602.026 3325.73 193.752 185.265 806.519 649.867 311.658 106.402 101.223 260.321 156.107 230.446 153.932 94.8858 153.754 463.013 118.52 142.575 181.304 495.624 446.037 105.569 125.067 114.384 259.766 202.464 308.768 109.267 2860.48 128.795 322.016 636.71 2696.45 1326.5 156.652 125.232 77.7103 319.648 243.152 111.916 141.801 1369.95 91.689 186.831 236.049 88.183 183.384 134.994 93.3807 348.629 278.218 231.785 96.6782 199.502
internal_count=21116 19896 1220 14833 13150 895 1683 11423 8225 5063 1727 7155 325 419 1153 2162 770 1532 178 1392 2901 674 2227 476 1154 1070 1780 3403 397 446 464 1135 353 447 717 1429 323 430 1215 723 3752 271 239 1002 811 383 132 133 312 205 292 197 147 191 530 145 172 210 591 530 144 143 134 324 254 351 126 3198 152 373 762 3018 1479 191 159 115 367 302 145 167 1539 112 214 269 127 238 174 119 396 317 263 113 225
is_linear=0
shrinkage=0.0367825


Tree=4
num_leaves=94
num_cat=0
split_feature=13 9 13 11 1 1 1 1 7 11 4 13 5 0 1 1 8 12 1 1 12 7 13 9 0 11 13 0 0 14 8 11 1 8 13 12 12 11 3 11 0 11 11 0 11 9 11 11 9 14 9 6 11 13 14 3 2 0 0 8 2 8 2 13 0 13 3 2 13 0 2 12 9 7 3 7 3 4 10 2 2 3 6 6 11 4 11 3 11 4 2 6 9
split_gain=159.221 58.2954 37.0111 23.9097 15.7881 14.3285 11.1272 10.4535 9.96742 8.84555 8.80492 8.6588 8.12646 7.48565 6.35895 7.46326 5.39434 4.81341 4.75958 6.77108 6.57042 4.69039 3.92881 3.77751 3.38521 3.36017 3.13368 3.12414 2.87574 2.76053 2.61673 2.48952 2.17111 1.94326 1.80448 1.73274 1.55434 1.50459 1.47102 1.46412 1.44913 1.42591 1.3016 1.2464 1.34816 1.17098 1.07469 1.03444 1.32559 1.03418 0.95198 0.881207 0.860052 0.789239 1.07634 0.783618 0.749715 0.730226 0.697215 0.60172 0.615318 0.59817 0.574391 0.561554 0.557382 0.497982 0.493221 0.489013 0.459772 0.436814 0.426488 0.420737 0.419294 0.417741 0.41703 0.407914 0.38208 0.377073 0.351458 0.32922 0.306614 0.271107 0.249712 0.30128 0.234073 0.219177 0.215625 0.177386 0.152295 0.12308 0.138128 0.125157 0.0669012
threshold=0.59411764705882364 0.41219938549523899 0.26491228070175443 1.9950000000000003 1.0000000180025095e-35 2.5000000000000004 2.5000000000000004 2.5000000000000004 0.64772563822768114 1.0050000000000001 20.545000000000005 0.82843137254901966 18.465000000000003 12.500000000000002 2.5000000000000004 1.0000000180025095e-35 0.20394849132144369 1.0000000180025095e-35 1.0000000180025095e-35 2.5000000000000004 1.0000000180025095e-35 0.27907221404768262 0.94281045751633996 0.87726904041195364 13.500000000000002 2.4050000000000007 0.82843137254901966 18.500000000000004 17.500000000000004 1.134848484848485 0.13747450895802674 2.5450000000000004 2.5000000000000004 0.71450701531106087 0.43875000000000003 3.5000000000000004 6.5000000000000009 1.8350000000000002 0.80547543109502973 2.0450000000000004 17.500000000000004 2.7150000000000003 2.0550000000000002 17.500000000000004 1.4450000000000001 -1.0155106459363623 2.0650000000000004 1.6150000000000004 -0.36140101022972804 1.8257575757575759 1.1256119140280896 1.9149999999999994 1.8450000000000004 0.46862745098039221 2.8819444444444451 0.84087662542525721 0.80652415334543004 19.500000000000004 19.500000000000004 0.039840530273653633 0.8062651779535267 0.29847269710687557 0.80804260328816258 0.81980519480519487 20.500000000000004 0.7947368421052633 0.80279550806161926 0.80817649865325025 0.70294117647058829 9.5000000000000018 0.80817649865325025 4.5000000000000009 0.92291406416581989 0.14884060230031887 0.80404030921172598 0.26662173491077551 0.8078673631163481 25.795000000000005 0.030997107942111645 0.80684503583449951 0.80800653215971119 0.80498890654629951 1.3600000000000014 2.8750000000000004 1.8450000000000004 23.055000000000003 1.7150000000000001 0.80669139806350898 2.2951641507292435 19.335000000000004 0.80802407873075521 1.4899999999999995 0.76652539105315276
decision_type=2 2 2 2 2 2 2 2 2 2 2 2 2 2 2 2 2 2 2 2 2 2 2 2 2 2 2 2 2 2 2 2 2 2 2 2 2 2 2 2 2 2 2 2 2 2 2 2 2 2 2 2 2 2 2 2 2 2 2 2 2 2 2 2 2 2 2 2 2 2 2 2 2 2 2 2 2 2 2 2 2 2 2 2 2 2 2 2 2 2 2 2 2
left_child=2 10 9 6 13 12 61 63 17 -1 14 33 27 92 15 59 -11 25 24 49 38 34 29 40 -12 -9 47 -4 30 -10 -26 45 -18 37 -7 -19 -23 56 75 73 51 -24 65 52 -45 -28 53 -16 71 76 72 -15 -13 54 -14 -47 -8 -36 -38 -2 -61 -3 -41 78 -35 -17 -32 -40 80 -65 -46 -49 -25 -22 -71 -21 79 -52 -6 -20 -63 -62 86 -84 -60 -55 -70 -42 -80 91 -91 -44 -5
right_child=1 3 5 4 7 21 11 8 22 16 18 43 46 23 26 42 32 35 19 20 39 36 41 50 28 -27 31 -29 -30 -31 66 -33 -34 64 57 -37 58 -39 67 62 87 -43 89 44 70 55 -48 48 -50 -51 77 -53 -54 85 -56 -57 -58 -59 84 60 81 68 -64 69 -66 -67 -68 -69 82 74 -72 -73 -74 -75 -76 -77 -78 -79 88 -81 -82 -83 83 -85 -86 -87 -88 -89 -90 90 -92 -93 -94
leaf_value=-0.039282881530381196 -0.0033856359877886114 -0.0010479731729492641 -0.0085734677768653216 0.0049163380522033616 0.00054308616031198398 -0.023798603521518764 -0.010173412823567278 0.00073965516940427791 -0.0056338101286134666 -0.030307492879096856 0.0031318495162081213 -0.0081163523448763968 -0.0088848042107668012 -0.0068437996693647826 -0.015641509692103366 -0.0042780946858506017 -0.01272588630812548 -0.0011348398515466519 0.0042407892660876684 -0.0020589095280165244 -0.011943799426116892 -0.0063267762789319983 0.0036255311235433713 0.0006106412291306862 -0.0017522915976071524 0.0033366963174253222 -0.010540878680159311 -0.020373586379781677 -0.0004418601579713809 0.0016664149717877195 -0.0070768895265664478 -8.1830746065828455e-05 -0.022376707705228784 -0.0075718535992311655 -0.019502839381418339 -0.005929233272896634 -0.016029635570600827 -0.0073647955164572176 0.00072244101614297573 -0.0018423233419767194 -0.0018586399110509294 0.0053217922057486391 0.00084099851358200898 -0.0066336250120807355 -0.0003524524119813142 -0.0056052934167432709 0.00080444903810792724 -0.0087893695568882838 -0.013178791101470322 -0.0012996446339957261 0.00047432390693058458 -0.0036294004366239641 -0.0024063140017921963 -0.0027043282267208185 -0.0026644099564472183 -0.0096883453783029299 -0.015442766853366083 -0.013268941016896447 -0.012555737848816166 -0.0042598150336200791 -0.010524442122960258 -0.0011536609681194571 -0.0061041179447152453 0.0068039886398571052 -0.0025973758094140404 0.00029370595568456806 -0.010641171279627116 -0.0026286849428191505 0.00099561131085366137 0.0044458011346214009 -0.0033247989380560477 -0.0042750158121242846 -0.0023225985583476237 -0.0079701216972584837 0.0054076678753289167 -0.0052086303085597764 0.0053009909442551907 0.0032111578462522164 0.0025477096030185444 0.0020403569924975712 0.0023755743672257104 -0.0073993596804197486 0.0057047597365082331 0.0025734904535968705 -0.0087498915085533844 0.00039567244664270629 0.003762513687102351 0.0008039336235488464 0.0048810139756967803 0.0025216433569801061 0.0047241736167279395 0.0030551976577087954 0.0066584693518439526
leaf_weight=50.467719316482544 45.102360844612122 46.749154567718506 52.457054972648621 48.367578029632568 46.66267466545105 75.780811429023743 56.870899319648743 2202.3327482938766 73.240703165531158 71.102727293968201 46.976607859134674 65.648887634277344 58.012199401855469 225.46295017004013 39.76614373922348 49.224412202835083 58.461109280586243 399.18376797437668 127.77112805843353 271.13677108287811 45.902594149112701 52.048271417617798 2359.666311442852 71.579098582267761 63.644646286964417 953.16645604372025 71.708225190639496 47.40384829044342 80.801800131797791 313.46811306476593 75.536572337150574 79.214042127132416 55.122143864631653 48.841446280479431 44.777779400348663 120.38961058855057 65.156349956989288 75.657764315605164 558.67758440971375 68.419491410255432 50.141103625297546 930.04173678159714 51.800207555294037 45.676540732383728 397.37152224779129 699.99074548482895 88.692388236522675 43.660024166107178 64.076923966407776 60.173623442649841 274.16627258062363 217.99009156227112 52.39344185590744 46.571008801460266 66.406497776508331 58.022328853607178 97.994024097919464 59.787447571754456 52.112819135189056 44.59773975610733 66.709348142147064 46.576968491077423 76.667736411094666 179.23100018501282 47.730666100978851 49.607268154621124 166.2854807972908 50.199698090553284 63.205368340015411 1187.873418867588 62.521737217903137 47.542174935340881 261.17129075527191 118.32141613960266 1341.3513294458389 54.852837264537811 92.2864630818367 73.028472185134888 56.926954746246338 253.04713380336761 55.698680102825165 91.404026508331299 102.48000997304916 53.418942511081696 41.899923264980316 46.202025175094604 60.251762509346008 54.579231321811676 76.094426393508911 62.931162059307098 71.297639727592468 58.015796840190887 119.31225448846817
leaf_count=84 55 55 67 54 54 111 73 2562 90 110 53 83 73 282 54 60 78 473 144 323 60 65 2668 84 76 1082 93 66 95 363 95 93 81 62 63 149 89 95 653 82 60 1034 60 57 469 867 104 56 85 71 320 264 63 56 80 74 131 80 69 55 86 55 95 196 58 58 214 60 73 1331 76 59 313 150 1490 67 103 83 65 290 64 115 114 61 54 54 68 64 85 72 80 66 131
internal_value=-2.30787e-06 0.000853406 -0.0139213 0.00203581 0.00257891 -0.0102395 -0.00251734 0.00307911 0.00234299 -0.0264888 -0.00307971 -0.00474156 -0.00542202 -0.00107063 -0.00507293 -0.00203099 -0.0229391 0.000989881 -0.00156145 -0.000716034 -0.00219019 -0.0151428 0.00369346 -0.0020813 -0.00495358 0.00152621 -0.00671823 -0.0138676 -0.00612975 0.000254207 -0.00774602 -0.00581422 -0.0178134 -0.0094963 -0.0194683 -0.00224525 -0.0115092 -0.0113836 -0.000669503 -0.00673357 -0.00432777 0.00410742 0.00144882 -0.00223575 -0.00141756 -0.00639875 -0.00241402 -0.0108234 -0.0095276 0.00270587 -0.00027296 -0.00526013 -0.00540891 -0.00369543 -0.00554052 -0.00596461 -0.0134479 -0.0163018 -0.0131509 -0.00671363 -0.00767631 0.00229803 -0.00421539 0.00494965 -0.00541238 -0.00179442 -0.00948131 0.000397608 0.00285036 0.00508702 -0.00080427 -0.00669474 -0.00162873 -0.00912073 0.00495819 -0.00260624 0.00332224 0.00106417 0.00301334 0.0028116 0.000879485 -0.00875082 0.00361257 0.00457008 -0.0110572 -0.00132246 0.00243259 -0.000691779 0.00384952 0.00291741 0.0036731 0.00207019 0.00588674
internal_weight=17952.3 16919.9 1032.46 13014.5 11635.4 797.308 1379.09 10239.6 7351.49 235.154 3905.37 950.707 405.745 1395.8 1694.67 590.69 184.686 3675.07 2210.7 1777.46 1244.18 391.563 3676.42 1228.12 433.245 3155.5 1103.98 99.8609 386.268 386.709 305.467 908.935 113.583 327.095 180.346 519.573 211.217 230.523 934.867 309.311 548.173 3289.71 342.876 623.612 505.57 829.721 305.884 195.045 155.279 533.278 679.945 443.453 118.042 217.192 124.419 758.013 154.865 104.565 159.169 247.813 202.711 428.381 145.087 2888.14 96.5721 98.8317 241.822 608.877 381.632 2708.46 459.893 91.2022 332.75 164.224 2529.22 325.99 473.105 347.195 179.684 380.818 102.276 158.113 279.356 155.899 94.0127 92.773 123.457 104.72 133.021 244.045 134.229 109.816 167.68
internal_count=21057 19673 1384 14954 13297 1031 1657 11642 8421 353 4719 1167 500 1655 2088 707 269 4266 2631 2098 1490 531 4155 1470 533 3644 1381 133 480 453 385 1127 159 419 254 622 277 299 1103 387 670 3702 396 748 602 1034 367 254 200 608 800 546 146 263 153 941 204 143 212 311 256 490 177 3221 120 118 309 713 435 3017 545 115 397 210 2821 390 537 403 204 434 119 201 316 175 123 110 141 124 150 278 152 126 185
is_linear=0
shrinkage=0.0367825


Tree=5
num_leaves=96
num_cat=0
split_feature=13 4 13 11 1 1 1 11 1 9 4 13 0 9 1 8 11 13 1 1 13 12 1 12 1 5 12 11 0 11 11 0 0 9 9 13 14 14 1 11 0 0 11 2 11 11 3 13 8 11 0 7 10 10 3 11 3 6 3 11 2 3 2 14 5 14 13 0 12 3 9 6 14 2 10 10 11 6 4 3 10 9 2 4 3 13 9 11 2 2 9 3 0 3 8
split_gain=142.735 56.2652 31.8297 21.0458 17.5446 16.1864 12.1486 8.86787 8.46035 8.04778 7.55746 6.60126 6.33265 4.96894 4.64993 4.18417 3.88736 3.88674 3.75472 7.85907 4.13278 3.6642 3.569 5.6245 5.25998 3.13544 2.92808 2.72579 2.55194 2.31118 2.29951 2.2755 2.24675 2.05435 1.91772 1.76133 1.67668 1.51801 1.44711 1.72052 1.42092 1.34563 1.34634 1.25299 1.16581 1.1376 1.09732 1.0569 1.04671 1.04365 0.99832 0.922541 0.856423 0.835796 0.787152 0.770939 0.764064 0.741909 1.07273 0.696948 0.694675 0.692517 0.654495 0.622913 0.61764 0.614727 0.54811 0.515158 0.511309 0.448668 0.444548 0.484028 0.37494 0.37241 0.360806 0.503689 0.347612 0.600556 0.340317 0.311283 0.31103 0.307997 0.30332 0.288164 0.282331 0.279624 0.277592 0.258175 0.243317 0.236044 0.225047 0.200634 0.168624 0.0841305 0.0118668
threshold=0.56696428571428581 22.235000000000003 0.26491228070175443 2.0850000000000004 1.0000000180025095e-35 2.5000000000000004 2.5000000000000004 1.655 2.5000000000000004 1.1436256255431203 20.605000000000004 0.97619047619047628 7.5000000000000009 0.60779071864353684 2.5000000000000004 0.1999390758027341 2.7050000000000005 0.44722222222222224 2.5000000000000004 1.0000000180025095e-35 0.81101190476190488 3.5000000000000004 1.0000000180025095e-35 1.0000000180025095e-35 2.5000000000000004 19.665000000000003 1.0000000180025095e-35 2.2951641507292435 13.500000000000002 1.905 1.9450000000000001 18.500000000000004 18.500000000000004 -1.0155106459363623 1.2122116923710962 0.47493734335839605 1.1602564102564104 1.5773809523809526 2.5000000000000004 2.4150000000000005 17.500000000000004 18.500000000000004 1.8650000000000004 0.80857233142032336 1.5450000000000002 2.0150000000000001 0.80652294987307671 0.81980519480519487 0.13747450895802674 2.1350000000000002 15.500000000000002 0.15286342972541259 0.19464277831060303 0.055017058349686405 0.79227403531659246 2.8850000000000002 0.80770507678899794 2.8750000000000004 0.80662132022588573 1.6050000000000002 0.80602804909227876 0.7937260670302152 0.80716417527320805 3.6904761904761911 20.045000000000005 2.1339285714285716 0.42481203007518803 17.500000000000004 3.5000000000000004 0.80643769619875294 0.91779797910287231 7.1300000000000017 1.607692307692308 0.80790584808862087 0.014647431810825833 0.058150012705122996 2.0450000000000004 1.5200000000000016 20.225000000000005 0.79880907169992488 0.086285548494894851 0.48751297202177651 0.80666694153916818 21.355000000000004 0.80204559831513966 0.76696832579185525 0.55353099443715215 2.5750000000000006 0.80861891130501518 0.80671100286989239 0.70739779563967398 0.80669139806350898 12.500000000000002 0.8076110776026838 0.69460448801366492
decision_type=2 2 2 2 2 2 2 2 2 2 2 2 2 2 2 2 2 2 2 2 2 2 2 2 2 2 2 2 2 2 2 2 2 2 2 2 2 2 2 2 2 2 2 2 2 2 2 2 2 2 2 2 2 2 2 2 2 2 2 2 2 2 2 2 2 2 2 2 2 2 2 2 2 2 2 2 2 2 2 2 2 2 2 2 2 2 2 2 2 2 2 2 2 2 2
left_child=2 10 7 6 12 15 47 63 70 16 18 29 94 40 -9 17 21 -4 19 57 49 -10 28 38 76 35 55 33 -12 31 69 68 48 -22 62 -7 -28 78 51 50 52 -27 66 59 -33 46 86 64 -30 56 -40 91 -14 -53 -35 -11 -20 58 82 -13 -32 -36 -15 -1 -3 -18 -43 -61 -8 -26 71 79 87 -47 -31 -76 77 -25 88 -6 90 -50 -2 -41 -59 -72 -17 -29 -21 -49 -66 -24 -87 -91 -5
right_child=1 3 5 4 8 25 11 14 9 26 22 43 13 34 -16 45 65 -19 20 37 27 -23 23 24 30 41 36 72 32 74 60 44 -34 54 61 -37 -38 -39 39 83 -42 42 -44 -45 -46 73 -48 89 81 -51 -52 53 -54 -55 -56 -57 -58 84 -60 67 -62 -63 -64 -65 80 -67 -68 -69 -70 -71 85 -73 -74 -75 75 -77 -78 -79 -80 -81 -82 -83 -84 -85 -86 92 -88 -89 -90 93 -92 -93 -94 -95 -96
leaf_value=-0.040315359129230427 -0.0086215062053421627 -0.0022175493277433664 -0.018481270717852157 0.0061445564734411481 0.003324320405325298 -0.024390010984568888 -0.01018209385615036 -0.012407728117229753 0.00096979720430089868 0.0039100737259374864 0.0013827420276201524 -0.0032907459658354917 -0.0087810493310786341 -0.00030605717422366332 -0.025732682572955756 0.00014859002270882312 0.0040823352828605322 -0.0046680201401881026 -0.016517148715373148 0.0018706521456603173 -0.011406681935570855 -0.0059752526615104501 0.0027671796772632223 0.0022232300913145237 -0.012461942828293463 -0.017285385739988082 -0.0047993287283779069 -0.00074632917080065737 -0.0035371234900020499 -0.0059093000377498433 -0.0011734928495139706 -0.0093881537241287862 -0.00091690157834642177 -0.007892785913479276 -0.00060965235500750053 -0.015409841605921787 0.0016861762921509763 -0.0036264462988321311 0.00094178727336594568 0.00079665537257785698 -0.0015001537333445608 -0.017038215692504025 -0.0077806401479490923 -0.0055237922440557405 -0.0043329493579481538 0.0028274200227139321 -0.0070805342228888561 0.0026460379225028371 -0.0096718174571499959 -0.0075601137990279847 -0.0016531224730088625 0.0028976231348416446 -0.0035844859346680982 -0.0025060988987220352 -0.0047152086309418988 0.0053415700254137348 -0.010557451053246014 -0.0027754632743234452 -0.0049671050070144466 -0.0025198912531914442 -0.005314297146893447 0.0031139681328915562 -0.0026000659802451723 -0.03139268695006469 0.0026336049839011753 0.0015331442325209046 -0.011567220255579864 0.0007412429879419479 -0.0147329999730542 -0.0084091748208994111 0.0028672590971695324 0.001311153783016228 -0.0028025136352408803 -0.0011939187524768137 -0.00020468388591355339 -0.0041544698584836245 0.0029325066452900355 -0.0023380272472850617 -0.00038024350689466605 0.004828757872897097 0.0037885095409926272 -0.0062771533871607962 -0.012577934829357134 0.003427660876574261 -0.0062670839064900181 0.006484433753613717 -0.0032753712634569785 0.0024399046880118304 0.0042007895287926511 0.005581457870689999 -0.0001321960373248773 0.0049738711972651785 0.0052150757128084186 0.0039586820908181974 0.0050229998288420239
leaf_weight=33.938969194889069 48.499334275722504 46.866851150989532 42.070504486560822 103.91722339391708 242.53968131542206 67.707461714744568 84.352397561073303 56.968468487262726 2945.2389794588089 2033.3614755272865 62.597961902618408 82.314584255218506 181.01423746347427 239.53175383806229 69.191443502902985 51.778050720691681 663.63726109266281 43.046831786632538 46.807533740997314 197.49159371852875 66.768823683261871 90.807754218578339 103.93635755777359 59.53684413433075 50.66264021396637 70.527511835098267 52.106110394001007 58.700980544090271 52.861866176128387 49.075279653072357 66.876554608345032 86.032047986984253 75.424880623817444 115.58152633905411 90.114147663116455 49.364636123180389 254.12549889087677 65.781535565853119 252.34580498933792 72.357920408248901 51.38418984413147 44.394085466861725 75.934888660907745 61.618879854679108 156.57946759462357 48.574255466461182 77.364089071750641 67.648332595825195 158.41147303581238 68.753373861312866 787.48838144540787 54.035311341285706 43.72542268037796 71.064648270606995 638.34005761146545 677.75049841403961 64.756413459777832 46.672093510627747 57.068068742752075 64.740702867507935 158.35287225246429 173.89197194576263 486.12842655181885 55.440275609493256 49.809219837188721 144.83854007720947 56.537728667259216 338.71059584617615 55.725359976291656 114.0131402015686 52.011193990707397 55.900006055831909 50.747573912143707 45.035899698734283 59.692783534526825 91.544413805007935 63.929805278778076 65.399023115634918 53.083675980567932 783.49021464586258 67.133562028408051 43.115620672702789 60.747457087039948 148.84798657894135 56.74545419216156 163.87539082765579 46.482178330421448 48.342162132263184 70.858867049217224 133.24107068777084 85.871868789196014 99.711328148841858 1446.3377767205238 66.793668150901794 48.854695677757263
leaf_count=59 62 56 59 114 273 101 109 77 3411 2288 72 100 232 283 106 61 747 54 64 227 88 113 118 68 67 99 64 70 64 61 80 111 89 147 106 68 294 80 293 84 61 62 98 76 193 56 97 77 204 88 938 61 53 84 790 750 85 57 71 78 196 198 586 87 57 166 75 395 75 146 59 64 61 54 71 112 73 78 62 871 76 54 80 169 71 179 56 56 80 148 100 111 1604 75 54
internal_value=3.4996e-06 0.000770707 -0.0138798 0.00201211 0.00259193 -0.0102719 -0.00184644 -0.0260189 0.00315573 0.00246592 -0.00281814 -0.00398594 -0.00120556 -0.00207613 -0.0200492 -0.00472218 0.00135077 -0.0112086 -0.00463181 -0.00243443 -0.00589062 0.000745882 -0.00153952 -0.000952572 -0.00401424 -0.0155812 0.00388337 -0.0049511 -0.00470278 -0.00668761 -0.0064452 -0.00836601 -0.00602681 -0.00578868 -0.000869239 -0.0204658 0.000555813 0.000888424 0.000175267 -0.000383634 -0.00633087 -0.0132681 -0.0114175 -0.00113052 -0.00624936 -0.00240874 -0.00402579 0.00273891 -0.00766255 -0.0108283 -0.00100981 0.00230338 -0.00765894 -4.34496e-06 -0.00523636 0.00427083 -0.0131131 -0.00709867 -0.00869027 -0.000468932 -0.00411211 0.00174711 -0.00182763 -0.0348005 0.00112012 0.00359302 -0.0140061 0.000163358 -0.0119661 -0.00966063 0.00487772 0.0042925 -0.000700004 0.000689433 -0.0035943 -0.00260993 0.000809913 -0.000100495 0.00197144 0.0044699 0.00192889 -0.00887981 -0.0107732 0.00245796 -0.00483877 0.00526423 -0.0016457 0.000643662 0.00251494 0.00435853 0.000978258 0.00381742 0.00535278 0.00501959 0.00551846
internal_weight=17983.4 17049.1 934.357 12672.3 11024.6 718.818 1647.75 215.539 9606.02 6861.87 4376.72 1130.39 1418.56 1265.79 126.16 354.352 3844.52 85.1173 1815.75 656.948 1158.8 3036.05 2560.97 2168.56 578.771 364.466 3017.34 978.481 392.412 583.002 389.905 382.689 329.814 820.69 989.666 117.072 306.232 387.216 1589.79 1261.04 276.124 247.394 176.867 547.385 242.612 269.234 175.624 517.365 254.389 180.317 1039.83 328.748 224.74 125.1 753.922 2711.11 111.564 269.732 166.315 485.766 225.229 264.006 725.66 89.3792 249.682 808.476 100.932 403.451 140.078 164.676 2744.15 1081.93 157.791 93.6102 200.312 151.237 188.866 124.936 321.434 1026.03 202.815 201.527 109.247 221.206 103.418 1662.22 98.2602 107.043 268.35 267.683 135.681 203.648 1610.21 200.035 152.772
internal_count=21097 19828 1269 14540 12570 940 1970 329 10883 7833 5288 1381 1687 1519 183 437 4437 113 2239 790 1449 3524 3049 2566 708 503 3396 1212 483 732 489 488 411 1025 1173 169 358 449 1858 1484 346 334 235 649 304 324 214 589 322 237 1231 374 285 145 937 3038 149 341 213 573 276 304 869 146 289 913 137 473 184 213 3050 1208 187 110 244 183 219 146 369 1144 233 258 142 253 128 1842 117 126 307 300 157 229 1783 223 168
is_linear=0
shrinkage=0.0367825


Tree=6
num_leaves=99
num_cat=0
split_feature=13 4 1 12 13 1 1 4 5 11 1 0 0 7 11 1 1 1 14 11 9 1 11 7 0 13 12 11 11 0 1 13 1 11 4 0 2 11 13 0 1 10 3 0 0 7 8 3 6 3 3 8 10 14 8 3 6 9 6 8 10 13 3 3 11 7 13 13 0 2 3 11 3 11 7 4 14 2 11 3 2 4 0 13 9 9 12 9 0 7 11 2 2 6 6 5 9 9
split_gain=124.041 49.5564 28.0978 17.3667 15.9678 15.6624 12.3336 9.12894 8.10056 7.61169 7.054 6.99764 6.23605 6.15319 4.22512 4.6647 4.16651 6.20714 4.12934 4.11064 3.78919 3.18173 3.01098 2.92558 2.91827 2.91203 2.62639 2.49135 2.47582 2.30037 2.25003 2.0832 2.0087 1.98812 1.78961 1.69462 1.64177 1.60339 1.55762 1.5314 1.51807 1.39221 1.32134 1.14605 1.12697 1.02926 0.90998 0.906951 0.830403 0.807585 0.782002 0.779745 0.762244 0.754996 0.751589 0.695685 0.684048 0.646056 0.619552 0.591927 0.837206 0.587894 0.583066 0.669726 0.580574 0.506184 0.4965 0.473682 0.460927 0.45803 0.450165 0.435772 0.423422 0.385877 0.381422 0.373834 0.428221 0.347429 0.495519 0.400097 0.343126 0.329656 0.323373 0.307121 0.297448 0.197227 0.247306 0.181026 0.178731 0.167246 0.15747 0.132881 0.114981 0.100367 0.0798227 0.0613953 0.0462811 0.0312633
threshold=0.56696428571428581 22.235000000000003 2.5000000000000004 1.0000000180025095e-35 0.32738095238095244 1.0000000180025095e-35 2.5000000000000004 20.545000000000005 18.465000000000003 1.8350000000000002 2.5000000000000004 18.500000000000004 7.5000000000000009 0.64772563822768114 1.9950000000000003 1.0000000180025095e-35 2.5000000000000004 1.0000000180025095e-35 5.291666666666667 2.0950000000000002 0.61509592123268031 2.5000000000000004 2.5850000000000004 0.36669465309851296 17.500000000000004 0.81101190476190488 15.500000000000002 2.3450000000000002 2.1650000000000005 13.500000000000002 2.5000000000000004 0.82843137254901966 3.5000000000000004 2.6850000000000005 25.535000000000004 18.500000000000004 0.80711215556522686 2.1950000000000007 0.82247899159663873 17.500000000000004 4.5000000000000009 0.26398232595658067 0.80785273487151643 18.500000000000004 19.500000000000004 0.78211895958690791 0.14494241599375499 0.80792604181091343 3.0600000000000009 0.80770507678899794 0.83176163942315096 0.035894450594311178 0.055017058349686405 2.1339285714285716 0.49236866213267022 0.80688775134436708 2.0049999999999994 0.35709073439334954 0.80499999999999983 0.25378898628639796 0.065134099616858274 0.73030303030303034 0.80652294987307671 0.80770507678899794 1.4650000000000001 0.081173636561788762 0.82247899159663873 0.94281045751633996 23.500000000000004 0.80796439502599493 0.80627523875705942 2.3550000000000004 0.80732627453278083 2.3950000000000005 0.16053497536632419 23.865000000000006 1.720779220779221 0.80802407873075521 2.2350000000000008 0.80382329843168787 0.80824390729763362 19.425000000000004 9.5000000000000018 0.81534090909090928 0.92291406416581989 0.87726904041195364 10.500000000000002 -0.36140101022972804 18.500000000000004 0.19710370368553545 1.7550000000000001 0.80796439502599493 0.80869427180389042 2.0250000000000008 2.3300000000000005 17.985000000000003 0.17762769493823574 1.4409216275438888
decision_type=2 2 2 2 2 2 2 2 2 2 2 2 2 2 2 2 2 2 2 2 2 2 2 2 2 2 2 2 2 2 2 2 2 2 2 2 2 2 2 2 2 2 2 2 2 2 2 2 2 2 2 2 2 2 2 2 2 2 2 2 2 2 2 2 2 2 2 2 2 2 2 2 2 2 2 2 2 2 2 2 2 2 2 2 2 2 2 2 2 2 2 2 2 2 2 2 2 2
left_child=2 7 8 5 19 12 61 16 11 36 68 -1 -3 22 21 29 17 51 62 26 39 52 32 43 54 49 -4 44 80 -16 70 57 -12 40 50 46 64 55 89 41 -26 -14 -38 -6 48 -30 -31 -40 -27 -18 -22 -2 -9 -24 -11 -19 -25 -23 -44 60 -53 75 85 -64 -8 -45 -66 -33 82 -54 74 -70 -46 -56 -17 76 -5 78 79 -63 -15 -29 -7 -35 -84 86 -10 -51 95 -32 -69 -77 -72 -79 -73 -39 -67 -36
right_child=1 3 4 6 23 10 9 14 18 24 13 -13 20 28 15 30 25 37 -20 -21 34 31 53 56 33 27 -28 81 45 35 38 67 -34 83 97 -37 42 88 47 -41 -42 -43 58 65 72 -47 -48 -49 -50 87 -52 59 69 -55 73 -57 -58 -59 -60 -61 -62 77 63 -65 66 96 -68 90 71 -71 92 94 -74 -75 -76 91 -78 93 -80 -81 -82 -83 84 -85 -86 -87 -88 -89 -90 -91 -92 -93 -94 -95 -96 -97 -98 -99
leaf_value=-0.0079416299934467246 -0.0029279535622981356 0.0053838134435228177 -0.028350084359489023 0.0016710309882770242 -0.021864211990851416 0.0063134023763926099 -0.0086449945461471757 0.0029014503798811884 0.0017624001651770518 -0.0092881732157880561 -0.0015495229137179412 -0.025135527845174352 -0.0083351750773039621 0.00067061275382431158 0.0016277597844051622 0.0026957635880603204 -0.013226796243622663 -0.00060053324470620635 -0.012534236593709223 -0.021411156826082287 -0.0019251779171276335 -0.0084384466685722085 0.0039442553258289071 -0.012480364583161029 -0.0043368295935533674 -0.0073996191288232104 -0.041177520862731597 -0.0024578604390946869 0.0028833419305467167 -0.0031656105717430684 -0.0064237688576008001 -0.0061776070581425289 0.0011400156431087703 0.00092389123092703578 0.0028437636866884275 -0.00081190322006619822 -0.014643341219430233 0.0025713082459215488 -0.00097123730595307571 -0.00067523735502343922 -0.00052378316137615527 -0.0018748594371817918 -0.010976936804537029 -0.018698087323952964 -0.0049557748302899883 0.0042729651824527128 -0.0078246559323528354 0.0009632030996212399 -0.0042144271040934333 -0.0065177748785642088 0.00091025922826208367 -0.012580652447721996 8.7497393780628947e-05 0.00077315248935418612 -0.0056422267326527338 -0.0056264362875276088 -0.0074935944873974281 -0.013817137304192536 -0.0057778594815668573 -0.0043309205329320147 -0.0070838409813538481 0.0029046324365075075 -0.0061282601940512984 -0.0013531120486069787 -0.0061436992352917512 -0.011566719411260083 -0.0019634106427460769 -0.0039799071839110795 0.00039375531096902562 -0.0043458952423661903 0.0032376158380996527 0.0030740804946539639 -0.0013799729113234192 -0.0019161428749544791 -0.00034926541770339907 0.0018201063866290135 -0.0022761015703469181 0.0040716681260274815 0.0051499763812594031 -0.00074618186516942715 -0.0024009217624721417 0.00091883716496998541 0.0041650252664886828 0.0036371419539645081 0.0050249234925578779 -0.0021358415308757551 -0.0013309740850654852 -0.0096407689567514013 0.0012868128803002986 -0.003535917004876675 -0.0014242459916743598 0.004009796129671556 0.005030884728391357 0.0057855539365183123 0.0049990551663703486 0.0040028488150442047 -0.014562046535837809 0.0041058733637232437
leaf_weight=65.548144578933716 49.81515634059906 163.30160719156265 63.237023293972015 76.791753828525543 52.763967275619507 169.26256531476974 42.464035630226135 54.769401550292969 66.144037783145905 47.211619079113007 446.45034754276276 42.56213766336441 186.61415427923203 214.25054281949997 65.224051237106323 119.95451140403748 72.727495610713959 78.52397894859314 44.700009882450104 66.496148765087128 709.31312769651413 78.790984272956848 568.21347856521606 74.148899614810944 190.22992831468582 496.12840646505356 35.235487818717957 53.784537494182587 1107.6564365029335 65.114100813865662 46.161519646644592 77.432083427906036 1996.3234159350395 85.689819753170013 50.846329748630524 75.370461881160736 58.402739703655243 79.266939640045166 741.6515184044838 54.107148408889771 438.72555637359619 45.011383831501007 44.807019472122192 37.069929003715515 75.179732620716095 2059.4282515048981 206.16563004255295 563.02738082408905 134.33540147542953 49.864381551742554 145.59258550405502 43.507428109645844 49.684052109718323 108.80741345882416 90.739159345626831 47.169396579265594 64.666843891143799 39.967877209186554 63.411422193050385 46.536017000675201 118.24891173839569 88.357808828353882 63.108582735061646 68.611129403114319 64.50046294927597 40.113159418106079 63.564525485038757 44.454082787036896 55.759796380996704 46.344153881072998 114.3413051366806 48.931759655475616 77.495146036148071 46.12326318025589 78.944209456443787 60.954846680164337 46.144219517707825 88.405677139759064 65.222539484500885 50.828979849815369 46.684518396854401 75.343971490859985 959.53057014942169 116.17146772146225 1387.7236979603767 45.093626797199249 45.636275708675385 50.733952343463898 89.338415801525116 45.603262186050415 62.091307282447815 64.7152019739151 74.42723423242569 100.59041279554367 54.315558016300201 72.931173741817474 42.505257964134216 57.764074563980103
leaf_count=86 61 179 100 88 78 184 55 62 77 60 528 64 240 249 75 136 98 93 62 100 850 102 638 100 233 630 63 65 1251 79 58 98 2313 100 58 89 79 90 880 64 519 54 59 54 94 2299 264 655 166 64 170 58 58 125 113 58 84 54 80 58 150 100 79 83 82 55 77 54 64 56 129 55 94 55 92 70 55 99 72 59 56 88 1069 132 1535 54 55 67 103 56 74 73 83 111 60 82 59 65
internal_value=5.68717e-05 0.000768368 -0.0130056 0.0019352 -0.0192177 0.00252601 -0.00120212 -0.00260613 -0.0064901 -0.00319596 0.00307832 -0.01464 -0.00106098 0.00242857 -0.00126198 -0.000592072 -0.00469686 -0.00233382 -0.00359318 -0.028246 -0.00196004 -0.00443791 0.00124804 -0.0143986 -0.0016226 -0.00607403 -0.0332399 -0.00524655 0.00350105 -0.00405351 0.000222194 -0.00660712 0.000644742 -0.000687572 -0.000867161 -0.00528341 -0.00789443 0.000708647 -0.000459783 -0.00559178 -0.00168803 -0.00694079 -0.0104902 -0.017435 -0.0060144 0.00378643 -0.00662898 -0.000136594 -0.00670215 -0.0102955 -0.00142154 -0.00655369 -0.000303122 0.00339034 -0.00563608 -0.00241357 -0.0103739 -0.0102415 -0.00817387 -0.00762656 -0.0086814 0.00293566 -0.00192655 -0.00359598 -0.00548651 -0.0153391 -0.0041586 -0.00424833 0.00466579 -0.00197029 0.00265586 0.00280627 -0.00327143 -0.00440386 0.0015094 0.00161031 0.000205171 0.00384859 0.00282607 0.00158874 0.00015004 -0.000744174 0.00479202 0.00237814 0.00467532 -0.000432014 0.000418145 -0.00827987 0.00246532 -0.00474422 -0.00263159 0.002899 0.00393466 0.00496401 0.00403807 0.00324664 -0.0133712 0.00328977
internal_weight=17908 16990.4 917.641 12629.9 476.237 10635.9 1994.05 4360.45 441.404 1352.04 9223.34 108.11 1412.55 6547.81 2649.52 2195.99 1710.93 625.337 333.294 164.969 1249.25 453.534 3119.79 311.268 1014.89 1085.59 98.4725 912.267 3428.02 411.874 1784.11 302.736 2442.77 830.817 963.516 346.65 337.15 367.23 1396.44 285.733 628.955 231.626 166.621 172.452 783.139 3167.08 271.28 1304.68 630.464 173.326 854.906 258.108 150.798 677.021 184.074 125.693 138.816 118.759 108.218 208.292 161.756 642.011 288.594 131.72 170.529 119.688 128.065 183.977 2675.52 96.0282 387.667 159.007 152.675 136.862 198.899 248.606 122.936 393.405 204.409 139.187 260.935 129.129 2516.52 201.861 2347.25 156.874 111.78 100.598 241.537 91.7648 106.545 125.67 188.769 188.996 103.247 152.198 82.6184 108.61
internal_count=21003 19750 1253 14477 693 12106 2371 5273 560 1644 10426 150 1680 7459 3154 2596 2119 753 410 263 1501 558 3604 430 1212 1366 163 1137 3855 507 2089 382 2841 984 1143 432 432 426 1649 358 752 294 218 246 984 3550 343 1535 796 229 1020 327 176 763 228 151 184 156 139 266 208 727 348 162 214 168 159 226 2967 114 440 179 188 168 228 286 143 441 231 159 305 153 2788 232 2604 186 132 131 275 114 128 143 212 210 115 172 114 123
is_linear=0
shrinkage=0.0367825


Tree=7
num_leaves=99
num_cat=0
split_feature=13 4 13 12 1 1 1 4 0 11 1 7 5 1 1 11 8 9 1 12 13 11 1 13 1 1 14 5 11 11 0 0 13 0 10 2 8 3 12 13 3 9 13 8 11 3 11 10 9 0 8 13 3 12 11 13 14 0 7 11 0 3 13 8 0 14 0 8 3 2 11 3 5 3 9 0 2 11 5 14 0 0 3 10 3 13 2 5 10 10 0 8 4 5 3 3 4 13
split_gain=136.999 46.2645 27.6998 17.4953 18.1451 15.685 11.1493 7.74269 6.97441 6.66005 6.38693 6.16167 6.12128 4.07361 6.46789 3.98507 3.9673 3.88186 3.81117 3.80187 3.38634 3.09138 3.06113 3.04299 2.93483 3.40083 2.89538 3.38872 2.53815 2.24363 2.16393 2.00422 1.92024 1.75974 1.74196 1.59832 1.48283 1.46467 1.45448 1.31171 1.29942 1.20226 1.14923 1.14205 1.396 1.10574 1.09306 1.04837 1.03997 1.03588 1.11496 1.01698 1.09351 1.00841 0.939179 0.753608 0.746096 0.740682 0.720014 0.719721 0.6888 0.52403 0.492114 0.724652 0.456796 0.745756 0.434047 0.417892 0.391712 0.391247 0.381617 0.372294 0.366238 0.356731 0.336795 0.324864 0.322919 0.322657 0.320619 0.306203 0.288087 0.273262 0.256312 0.241806 0.238325 0.227087 0.220295 0.213968 0.239304 0.200401 0.181163 0.17976 0.162407 0.140901 0.127389 0.0440864 0.0239141 0.0201313
threshold=0.56696428571428581 22.175000000000004 0.17156862745098042 1.0000000180025095e-35 1.0000000180025095e-35 2.5000000000000004 2.5000000000000004 20.545000000000005 7.5000000000000009 1.9150000000000003 2.5000000000000004 0.66376201828465631 19.605000000000004 2.5000000000000004 1.0000000180025095e-35 1.9950000000000003 0.31207313921115404 0.77070701197586522 4.5000000000000009 15.500000000000002 0.81101190476190488 2.5650000000000004 2.5000000000000004 0.94281045751633996 1.0000000180025095e-35 2.5000000000000004 2.2361111111111116 17.745000000000001 2.1650000000000005 2.5450000000000004 17.500000000000004 13.500000000000002 0.45227272727272733 17.500000000000004 0.087889069575574935 0.80539241956307495 0.82950927409726793 0.80810159965685802 3.5000000000000004 0.42481203007518803 0.80350113638007492 1.1436256255431203 0.7947368421052633 0.46615540307662995 2.0050000000000003 0.80652294987307671 2.7350000000000008 0.073574921111007024 -1.0155106459363623 18.500000000000004 0.13747450895802674 0.82843137254901966 0.8036767034858453 1.0000000180025095e-35 2.7350000000000008 0.73030303030303034 1.1602564102564104 17.500000000000004 0.4545444494943352 1.6650000000000003 16.500000000000004 0.80846462500627136 0.82247899159663873 0.286445169094385 20.500000000000004 1.1602564102564104 17.500000000000004 0.035894450594311178 0.79965726425205086 0.80751307437867148 2.0950000000000002 0.80788494857712856 20.375000000000004 0.83890138385971158 0.050445873596299672 19.500000000000004 0.80602804909227876 1.8350000000000002 24.035000000000004 1.720779220779221 9.5000000000000018 18.500000000000004 0.80785273487151643 0.025836036228584217 0.80772417814479691 0.65833333333333344 0.80720917707149076 22.955000000000002 0.11676584492692071 0.03564104395165861 19.500000000000004 0.56267372888336042 24.065000000000001 22.545000000000005 0.806177555372939 0.80673748520976574 21.355000000000004 0.32738095238095244
decision_type=2 2 2 2 2 2 2 2 2 2 2 2 2 2 2 2 2 2 2 2 2 2 2 2 2 2 2 2 2 2 2 2 2 2 2 2 2 2 2 2 2 2 2 2 2 2 2 2 2 2 2 2 2 2 2 2 2 2 2 2 2 2 2 2 2 2 2 2 2 2 2 2 2 2 2 2 2 2 2 2 2 2 2 2 2 2 2 2 2 2 2 2 2 2 2 2 2 2
left_child=2 7 19 4 8 16 55 13 -3 33 64 21 32 14 67 22 26 34 38 84 71 35 47 62 31 74 -4 -28 78 48 91 -17 97 93 36 -12 -10 39 56 -14 72 57 -16 -18 45 -45 -32 -9 -22 50 -33 52 -35 -42 -30 79 -11 -19 -53 -50 -36 89 63 -24 80 -66 -23 -2 -69 -70 87 -15 -27 -43 94 -73 -44 -41 -13 85 -6 -78 -76 -82 -1 -5 -67 88 -57 -39 -25 -20 -81 -8 -26 -72 -64 -7
right_child=1 3 5 6 10 12 9 15 17 18 11 28 37 20 42 24 43 41 30 -21 29 66 23 90 25 40 27 -29 54 -31 46 49 -34 51 60 -37 -38 61 -40 77 53 73 76 44 -46 -47 -48 -49 59 -51 -52 58 -54 -55 -56 70 -58 -59 -60 -61 -62 -63 96 -65 65 86 -68 68 69 -71 95 75 -74 -75 82 -77 81 -79 -80 92 83 -83 -84 -85 -86 -87 -88 -89 -90 -91 -92 -93 -94 -95 -96 -97 -98 -99
leaf_value=-0.020648682044702309 -0.003922036237762147 0.0053350405399263407 -0.0035428178571149439 0.0035399708310487623 0.0060774857868464167 -0.029561624333517781 -0.0099255202609067859 0.0027584510442087823 -0.0079918337067741776 -0.0056070577809058048 0.0015208338322241801 -0.0012237481731926052 -0.019499053403568428 -0.012490172453364624 -0.0025601994656313195 0.0019825649391892598 0.001547522168314339 -0.0025205281278065043 -0.0035455478315271492 -0.037106620620515972 -0.0094052082621584789 0.0014355015455651771 -0.014454698161222045 -0.0032674026662713527 -3.6388285655346136e-05 -0.0033885533719021357 -0.019948069690068425 -0.0075806263216262179 0.0033459166088923484 0.00043711379008397826 1.6874307937787291e-05 -0.0020661706405433809 -0.017676109666911653 -0.010662438420116625 -0.0046957147039877597 -0.00030804504039573288 -0.0017338156526519384 -0.010167431792154123 -0.0094299077965744934 -0.014649529546896455 0.00042888718086518186 0.00024748567988690234 -0.0002964721317784595 -0.0033130330273182691 -0.00038242968818609464 -0.0097523631806107104 0.0036391617940487769 -0.0027548098673386427 -0.0090759617368328434 -0.0010974798007833051 -0.0073283867236664576 -0.0066218583642529555 -0.0054122660758349839 -0.0027768018330278856 0.0047613550018909302 0.0044260459632267284 -0.0017500122430128644 0.0013689650130170625 -0.0014520744757320172 -0.0048270111775103181 -0.00058222082012649476 -0.013283324583400246 -0.0063645920380013925 -0.0085079922631226147 0.00019598048937366074 0.0026242166288947002 0.0036454118085922005 -0.010058986681857193 -0.0044035617495189229 -0.0080370268203754265 0.0043111546931500697 -0.0064957187701018626 -0.0010925584821784321 0.0028737154671264168 0.0028816055471729898 -0.010497636515575315 0.0036085998114821281 -0.010025064107188768 0.0013464957678417139 -0.0018629860643964928 0.0040594661452658092 0.0012180516336932261 0.0050885263182636285 0.0048514043333870785 -0.026798758975341667 0.00079074437392206943 0.0049143357513286466 0.00083778892687787134 0.0019005042512650586 -0.0067980112084466728 -0.0006820387468002327 -0.0065267865993236173 0.00069118931762642683 -0.01342671649404638 0.002302763104195144 0.0056172917964847774 -0.0081318825499712855 -0.023849355295955953
leaf_weight=38.631597220897675 47.725085258483887 166.64304387569427 41.60662454366684 67.07244461774826 167.91134470701218 35.418175578117371 40.704318106174469 69.689803957939148 235.3142996430397 116.62047815322876 1288.9931153059006 142.45549118518829 63.385526299476624 73.1015465259552 83.557746052742004 58.510490477085114 47.349415898323059 417.43702453374863 45.019166588783264 52.10347980260849 72.307207643985748 134.24910968542099 45.370554864406586 59.491691648960114 46.545806348323822 268.08843737840652 51.430616557598114 46.779360234737396 2174.7316938638687 80.238004446029663 442.45159494876862 62.998820006847382 58.467809438705444 76.767228424549103 80.140067636966705 1266.595411658287 50.95823210477829 45.405764162540436 61.613642275333405 41.453802585601807 751.69266623258591 248.72007024288177 51.473286151885986 59.584360122680664 68.814963042736053 59.584188342094421 133.47640317678452 86.839316129684448 45.670040488243103 67.566978394985199 179.87963771820068 42.903689384460449 129.95236641168594 145.08361631631851 891.25393307209015 96.128802120685577 128.97909623384476 63.252673149108887 87.655715703964233 741.77399569749832 117.48453986644745 43.837363660335541 42.389001846313477 53.642966270446777 74.949341237545013 77.359911382198334 648.58041799068451 51.089770436286926 64.490990161895752 81.621342897415161 85.538464784622192 42.594551265239716 128.60117983818054 79.10464996099472 184.53034394979477 62.216579139232635 137.4860435128212 43.15966671705246 96.913906812667847 45.564657032489777 943.31518602371216 99.611683368682861 101.20471835136414 1307.2782674431801 34.3040412068367 66.112382173538208 152.98915189504623 52.986504733562469 82.524941742420197 49.26692396402359 58.891087591648102 47.251118183135986 58.935360550880432 42.008199393749237 48.374357402324677 82.972571134567261 41.799327909946442 37.730332016944885
leaf_count=58 59 182 52 76 182 58 54 79 303 144 1488 168 93 99 101 67 56 503 55 92 95 153 62 72 54 324 75 59 2443 94 521 76 84 101 99 1483 61 62 80 58 879 290 60 72 82 77 151 104 59 80 231 54 165 177 984 107 154 74 106 926 140 61 54 70 86 87 728 67 81 105 95 55 153 90 209 83 155 58 112 54 1047 115 112 1443 55 76 169 61 94 65 70 59 68 57 55 91 54 58
internal_value=-5.85853e-05 0.000684918 -0.0137835 0.00178281 0.00237094 -0.0113417 -0.00133543 -0.00264252 -0.00142411 -0.00317824 0.00296512 0.00235064 -0.0161456 -0.00452815 -0.00215759 -0.0013412 -0.0059274 -0.00235305 -0.00152847 -0.029202 -0.00585147 0.00123722 -0.00438832 -0.00654671 -0.000643692 1.12679e-05 -0.010518 -0.0139487 0.00347303 -0.00497415 2.80137e-05 -0.00355011 -0.0225462 -0.00699417 -0.00492412 0.000616393 -0.00674891 -0.0131707 -0.00482475 -0.0156117 -0.000880787 -0.00080978 0.000869169 -0.00298336 -0.004145 -0.00645625 0.000876235 -0.000426658 -0.00551385 -0.00475986 -0.00587581 -0.00586166 -0.00739676 -0.000115488 0.00375966 0.00263522 -0.00363189 -0.00194944 -0.00338329 -0.00511913 -0.00237422 -0.0103521 -0.00945117 -0.0112607 0.00446163 0.00313578 0.00323656 -0.00663313 -0.00748991 -0.00649446 0.00363385 -0.0103458 -0.00260508 0.000882361 0.00300902 -0.00897556 0.00199972 -0.0126116 -6.73287e-05 0.0010805 0.0046358 0.00258483 0.0036787 0.0045215 -0.0241654 0.00213824 0.00410713 0.00269203 0.00324825 -0.00860409 -0.00221231 -0.00479099 -0.000359445 -0.011517 0.00128036 0.00493026 -0.0074524 -0.0266913
internal_weight=18014.3 17096 918.314 12859.9 10826.6 793.275 2033.24 4236.15 1459.05 1395.4 9367.58 6643.77 418.125 1734.96 617.056 2501.19 375.15 1292.41 975.411 125.039 1117.9 3338.42 458.114 301.585 2043.08 1674.12 139.817 98.21 3305.36 939.989 668.198 368.956 131.616 419.992 483.897 2555.59 286.273 286.509 307.213 147.999 1293.47 808.514 372.129 235.333 187.984 119.169 575.928 156.529 859.751 310.445 242.878 337.279 206.72 896.776 3065.99 637.836 245.6 480.69 130.559 787.444 197.625 138.51 183.202 99.0135 2723.8 305.298 782.83 244.927 197.202 146.112 400.151 177.913 396.69 327.825 380.655 104.811 288.571 84.6135 239.369 237.685 2418.5 237.098 285.735 2250.59 72.9356 133.185 230.349 231.64 178.654 94.6727 118.383 92.2703 104.5 82.7125 94.9202 168.511 84.1883 73.1485
internal_count=21149 19874 1275 14738 12315 1070 2423 5136 1742 1701 10573 7559 597 2154 743 2982 473 1560 1164 205 1411 3852 565 382 2417 1963 186 134 3707 1174 786 454 200 537 603 2971 364 397 378 209 1533 957 431 287 231 149 672 183 1080 387 307 426 266 1056 3427 722 298 577 160 985 239 188 240 132 3014 342 881 312 253 186 448 237 477 380 430 138 330 116 280 274 2672 270 321 2490 113 152 256 262 201 127 142 114 122 111 109 186 108 116
is_linear=0
shrinkage=0.0367825


Tree=8
num_leaves=101
num_cat=0
split_feature=13 4 13 1 11 1 4 13 1 5 14 13 13 1 1 0 7 0 1 7 8 1 11 1 1 11 13 13 9 11 0 8 4 11 6 0 0 0 11 11 13 5 9 11 12 0 4 11 0 14 0 14 3 8 10 11 3 14 2 5 3 2 6 0 8 0 9 5 13 8 0 14 3 14 3 11 5 4 14 12 5 9 0 4 8 3 11 6 5 4 8 14 13 6 0 0 0 5 5 9
split_gain=116.759 43.4173 35.8131 15.357 11.0708 13.4091 9.73866 8.44857 6.07562 4.90507 4.89756 4.73766 4.39574 6.1809 6.01649 4.65962 4.20704 4.16701 3.69486 4.25674 3.65991 3.27143 3.22621 2.90429 5.99332 2.82452 2.76063 2.71556 2.37542 2.1953 2.11815 1.87743 1.76425 1.639 1.57892 1.56658 1.5567 1.47206 1.41099 1.29205 1.17641 1.15474 1.14719 1.13663 1.08047 1.05684 1.00051 1.06975 0.972383 0.947308 0.892994 0.842996 0.877626 1.60186 0.82805 0.813067 0.971992 0.792598 0.777842 0.759645 0.755112 0.697726 0.696619 0.683423 1.28831 0.883112 0.678711 0.63616 0.635212 0.633785 0.603076 0.585354 0.580882 0.552065 0.525208 0.505476 0.484121 0.471903 0.456728 0.447106 0.422351 0.415054 0.438549 0.365373 0.352881 0.343351 0.293303 0.283138 0.265585 0.25057 0.242556 0.233898 0.212543 0.192614 0.190452 0.17524 0.13581 0.0727396 0.0708198 0.0672109
threshold=0.62828947368421062 22.755000000000006 0.26491228070175443 2.5000000000000004 2.2250000000000005 1.0000000180025095e-35 20.545000000000005 0.11437908496732027 2.5000000000000004 18.465000000000003 2.3484848484848491 0.94281045751633996 0.94868421052631591 1.0000000180025095e-35 2.5000000000000004 12.500000000000002 0.36279663663522671 13.500000000000002 2.5000000000000004 0.63596962646431165 0.21621415224053911 2.5000000000000004 1.9950000000000003 2.5000000000000004 1.0000000180025095e-35 1.6450000000000002 0.47493734335839605 0.8047619047619049 1.1193461636704587 2.2951641507292435 17.500000000000004 0.13747450895802674 19.225000000000005 2.5950000000000002 2.7700000000000018 15.500000000000002 17.500000000000004 16.500000000000004 2.0250000000000004 2.8650000000000007 0.82843137254901966 19.735000000000003 0.63519901526716105 2.5350000000000006 1.0000000180025095e-35 19.500000000000004 23.805000000000003 2.2150000000000003 17.500000000000004 1.4330357142857146 17.500000000000004 1.8619047619047622 0.80662132022588573 0.77095942000334572 0.026978917080199494 2.1950000000000007 0.80704851702545988 1.2583333333333335 0.80850643761346075 19.935000000000006 0.80842687830469007 0.80744345121134509 0.86500000000000032 18.500000000000004 0.20809125936828574 16.500000000000004 -0.4061539302035837 21.345000000000002 0.55277777777777792 0.11315642649536639 19.500000000000004 2.1055555555555561 0.80613032152620834 1.720779220779221 0.80799108540168896 1.9550000000000003 17.545000000000005 24.545000000000005 2.1602564102564106 3.5000000000000004 19.765000000000004 0.050445873596299672 20.500000000000004 26.015000000000004 0.3872906934095447 0.80581682517053299 2.0150000000000001 0.500000000000001 23.785000000000004 24.125000000000004 0.076922647697689597 10.250000000000002 0.87867647058823539 1.4700000000000009 23.500000000000004 16.500000000000004 12.500000000000002 15.945000000000002 22.735000000000003 1.0573127475643795
decision_type=2 2 2 2 2 2 2 2 2 2 2 2 2 2 2 2 2 2 2 2 2 2 2 2 2 2 2 2 2 2 2 2 2 2 2 2 2 2 2 2 2 2 2 2 2 2 2 2 2 2 2 2 2 2 2 2 2 2 2 2 2 2 2 2 2 2 2 2 2 2 2 2 2 2 2 2 2 2 2 2 2 2 2 2 2 2 2 2 2 2 2 2 2 2 2 2 2 2 2 2
left_child=2 6 7 9 8 17 23 91 73 10 -4 25 14 15 67 -14 26 99 69 27 -9 81 37 24 63 34 70 -20 42 35 31 -17 45 -29 -10 -23 85 -16 -22 44 76 -39 50 66 -21 54 68 -48 -24 -47 -19 -11 59 -54 -25 56 -26 -56 75 -53 -38 -50 -28 64 65 -2 -42 79 -18 90 -5 -31 -64 80 -44 77 -34 -13 -41 -8 -3 -15 -83 88 -77 -27 -60 96 -30 -61 -7 -1 93 -82 -89 -57 -71 -97 -94 -6
right_child=1 4 3 16 5 18 12 20 11 51 -12 58 13 21 22 30 46 28 19 39 38 29 48 32 55 36 62 33 83 71 -32 -33 40 -35 -36 -37 60 41 -40 78 43 -43 74 -45 -46 49 47 -49 61 -51 -52 52 53 -55 57 95 -58 -59 86 89 -62 -63 72 -65 -66 -67 -68 -69 -70 87 -72 -73 -74 -75 -76 84 -78 -79 -80 -81 92 82 -84 -85 -86 -87 -88 94 -90 -91 -92 -93 98 -95 -96 97 -98 -99 -100 -101
leaf_value=-0.039665900877994674 -0.002945026231382404 0.00057485041182759851 -0.0033261809734011663 -0.02352935694098977 0.0040185930110674586 0.0029416155583688926 0.0016534531337686871 -0.026221986956195525 -0.012664703782061981 0.0023173065646961539 -0.017787086038850354 -0.0013355758004406461 0.0045643208382766774 0.00088762691380997222 -0.013659060174560405 -0.0014035625545675333 -0.0084608525766938173 -0.0067196846071904681 -0.0045708486129737939 0.0032169903892699764 -0.01841255549598177 0.0011206780539249825 -0.0063882608411868257 -0.012516893087034178 0.00099109793745281614 -0.0095842987296103372 -0.015864741660229009 0.00091790637531864879 0.00092156648449136442 0.0025647986625900658 2.7871886096440022e-05 -0.0070405323944035874 -0.010596098056616569 0.0031926896626602568 -0.0048414659500851725 -0.001488744648949229 -0.0012881883673309723 -0.010722045467456658 -0.0096799646538500931 0.0050190291453459735 -0.0010614429133307278 -0.0053464966710487418 -0.0026450365365920906 0.00074231224982591458 0.00058527160936285884 -0.0012699332580809824 -0.014712966940974513 -0.0077293538074358174 0.00060784037320443535 -0.0073682805460789369 -0.0014571784787687438 -0.0039948269215938619 -0.0071685524678680229 0.00042155101787705079 -0.006663510353512112 0.0034835069463884194 -0.0051269015997287681 -0.011684915656567015 -0.0043249415262959223 0.0020876150622830421 -0.0056371783093172867 -0.0032402360172410758 -0.013386720663551782 -0.002987469579804686 -0.011905323658104584 -0.0081173900863238321 -0.004689082904750814 0.003873224549894205 -0.0033590732555761945 0.0055311620988537924 -0.017345321004759461 -0.00094653666534016468 -0.0080544598035469078 0.00034534997405879998 2.7767588640273318e-05 0.0035010189978926681 -0.0054953230229754487 0.0017515404089809236 0.0029417953337199081 -0.0021580929391879907 0.0014299715828867666 0.0040189638162720712 0.00099060431677034256 0.0030878316001127751 0.00090008024413397144 -0.0052721710987933528 -0.0009982532104033015 0.0049052160722922672 -0.0013531783666174669 -0.00090321777417525688 4.4636054993623463e-05 -0.0309967381891166 0.0053553596727222725 0.0036894112795013497 0.0034650744208363556 0.0024424771566243938 0.0037552748497411939 0.00082248292629378509 0.0037177552597294065 0.0056806605488759028
leaf_weight=32.967720150947571 75.141441524028778 48.687944173812866 51.701027154922485 52.455071151256561 61.613836407661438 85.025759518146515 85.359561800956726 59.430496573448181 69.461085796356201 54.548576951026917 49.452256679534912 223.43289959430695 67.953590333461761 82.492884457111359 43.152180254459381 89.161461770534515 73.368251502513885 146.3774636387825 85.237017691135406 2456.8606786727905 46.962502479553223 407.51633769273758 58.925353050231934 42.377801060676575 71.149357259273529 41.322972118854523 53.846219122409821 1426.3619123101234 199.80551367998123 404.40694814920425 88.416479766368866 350.90301597118378 41.691959798336029 594.7322164773941 50.172497749328613 1165.4967116713524 310.39085495471954 66.871684670448303 38.82086193561554 724.31437319517136 71.533111155033112 166.25637781620026 428.32440906763077 61.863974511623383 216.31219202280045 61.87996917963028 57.030790746212006 46.308917641639709 101.3315801024437 49.621245861053467 46.964463472366333 44.892396509647369 84.957084715366364 45.758424818515778 247.44584780931473 91.797901690006256 43.896569311618805 40.240708947181702 57.562052667140961 84.51658308506012 50.105827987194061 126.21372926235199 45.957509875297546 52.46054744720459 50.45692503452301 79.497454762458801 384.28440237045288 90.192386448383331 43.143889546394348 52.602896094322205 54.844747126102448 60.668480098247528 54.626180350780487 83.672735869884491 113.77757692337036 81.029458820819855 41.547020435333252 77.452480614185333 169.26940512657166 54.837013065814972 60.391005992889404 378.46970123052597 62.933098673820496 58.529047966003418 246.683758020401 42.498822569847107 58.008893132209778 1407.1279480457306 86.924340784549713 45.723961651325226 48.177958309650421 33.908888816833496 111.12895554304123 154.54776400327682 133.72642719745636 47.605042815208435 734.07937216758728 80.756760895252228 52.877381086349487 77.174458503723145
leaf_count=62 93 56 64 82 68 95 98 97 94 63 71 266 75 95 59 107 98 187 105 2756 70 472 74 57 83 54 76 1652 232 461 104 450 56 669 63 1386 375 89 54 797 87 212 518 72 253 76 79 60 120 64 56 55 107 54 316 103 54 54 71 98 62 154 64 65 68 103 480 101 54 57 81 71 73 97 135 92 54 90 189 65 69 421 72 66 285 54 68 1545 103 54 55 57 122 173 149 54 814 93 59 84
internal_value=-5.06767e-06 0.000774519 -0.0112402 -0.00823984 0.00209779 0.00260887 -0.00186901 -0.0245535 -0.000515739 -0.00347992 -0.0101162 -0.00184782 -0.000885769 -0.000270198 -0.00330856 -0.00359797 -0.012749 -0.00096508 0.003148 0.0026319 -0.019857 0.000514504 -0.00535279 -0.00424859 -0.00222051 -0.00436337 -0.0159038 0.00132377 -0.00175412 -0.000147854 -0.00479347 -0.0058366 -0.00541992 0.00159116 -0.00913834 -0.000803813 -0.003049 -0.00814328 -0.0148304 0.00340383 -0.00413151 -0.00701701 -0.00292868 -0.00345854 0.00299932 -0.00717007 -0.00908661 -0.0114986 -0.00269147 -0.00421107 -0.00528642 -0.001429 -0.00212916 -0.00430031 -0.00822611 0.000979779 -0.0013102 -0.00749728 5.50913e-05 -0.000500092 -0.0019845 -0.00155112 -0.0127734 -0.00629544 -0.00733475 -0.00569645 -0.00407759 0.00152878 -0.00666969 0.00433575 -0.0203402 0.00203277 -0.0107287 0.00282338 -0.00207567 0.000578643 -0.00786969 -0.000478378 0.00460845 0.000181891 0.00339478 0.00307083 0.0035461 0.00070482 0.00156022 -0.00718664 -0.00253322 0.00448055 0.000220134 0.0009236 0.00198061 -0.0350381 0.00381297 0.00305696 0.00477533 0.0023094 0.00390163 0.00150109 0.00478674 0.00470603
internal_weight=17914.8 16759.6 1155.22 943.132 11172.7 9353.32 5586.81 212.09 1819.43 461.55 101.153 1308.12 3951.56 3158.42 793.14 596.435 481.582 1219.49 8133.83 5673.09 145.214 2561.98 562.751 1635.25 592.762 563.952 261.73 2106.33 1080.7 2038.09 528.481 440.064 1042.49 2021.09 119.634 1573.01 444.318 276.28 85.7834 3566.76 600.92 233.128 735.444 517.681 2673.17 441.566 219.852 103.34 286.471 111.501 193.342 360.397 305.848 130.716 330.064 335.206 115.046 287.687 744.17 175.133 360.497 227.545 154.43 257.556 205.096 154.639 455.818 230.389 116.512 2460.74 107.3 465.075 100.584 511.306 542.102 628.599 83.239 300.885 893.584 140.197 427.633 523.896 441.403 345.259 327.713 83.8218 115.571 2327.54 286.73 130.241 133.204 66.8766 378.945 214.939 1540.85 220.16 786.682 128.362 164.006 138.788
internal_count=21026 19453 1573 1233 12735 10585 6718 340 2150 566 135 1574 4686 3714 972 736 667 1449 9136 6421 221 2978 708 2032 716 702 376 2426 1297 2390 661 557 1316 2321 157 1858 545 360 124 3995 749 301 896 639 3009 567 291 139 348 140 243 431 368 161 427 387 137 370 872 207 437 274 213 329 264 196 567 264 152 2715 163 532 137 576 653 733 110 356 986 163 479 588 493 401 377 108 139 2565 335 152 150 119 423 242 1694 250 871 147 181 152
is_linear=0
shrinkage=0.0367825


Tree=9
num_leaves=75
num_cat=0
split_feature=13 9 13 13 8 1 11 1 0 1 4 1 7 1 11 13 1 1 12 13 14 14 1 11 4 13 9 0 0 5 5 13 11 11 11 0 11 13 8 0 7 1 1 1 0 9 6 8 4 2 0 11 6 14 11 3 11 5 4 9 11 3 4 9 0 3 2 8 0 9 3 2 5 10
split_gain=120.83 43.4691 23.9025 20.7803 11.3543 9.2653 9.81124 8.23599 5.95996 5.90234 5.85032 5.79788 5.40474 4.59493 4.36479 3.46083 3.96721 8.38882 4.90373 3.22911 3.1525 3.05841 3.04157 2.73026 2.39936 2.19737 2.19246 2.11341 2.67831 2.02626 1.90972 1.86773 1.56853 1.50526 1.49719 1.44849 1.4345 1.40983 1.38634 1.37123 1.34671 1.17492 1.16693 3.97438 1.28557 1.18971 1.08404 0.946382 0.8542 0.797813 0.77687 0.735088 0.712063 0.688533 0.679879 0.502625 0.497201 0.479998 0.475309 0.421565 0.420735 0.393727 0.331072 0.321608 0.31215 0.33759 0.2957 0.231408 0.165299 0.0966195 0.096194 0.0626164 0.0400028 0.0162903
threshold=0.46410256410256417 0.41219938549523899 0.7947368421052633 0.12132352941176472 0.18826934677175552 1.0000000180025095e-35 2.0250000000000004 2.5000000000000004 12.500000000000002 2.5000000000000004 19.335000000000004 2.5000000000000004 0.65569793995245285 2.5000000000000004 1.9950000000000003 0.56696428571428581 1.0000000180025095e-35 2.5000000000000004 1.0000000180025095e-35 0.81101190476190488 4.6333333333333337 1.4686274509803925 2.5000000000000004 2.5650000000000004 20.605000000000004 0.29705882352941182 0.87296221638731264 17.500000000000004 13.500000000000002 16.135000000000002 17.985000000000003 0.8973684210526317 1.3650000000000004 1.9950000000000003 2.7750000000000004 22.500000000000004 1.7750000000000001 0.60357142857142865 0.0080427642152633289 17.500000000000004 0.3582470415969225 1.5000000000000002 2.5000000000000004 1.0000000180025095e-35 19.500000000000004 -1.0155106459363623 2.8050000000000002 0.45359033650582176 25.675000000000004 0.80535083246776817 20.500000000000004 1.5250000000000001 0.95500000000000018 2.0871212121212124 2.3250000000000006 0.8216606050915124 1.5450000000000002 21.645000000000003 23.475000000000005 1.0684706674236277 1.7450000000000003 0.80841601353533599 22.995000000000001 -0.86109189677445486 10.500000000000002 0.806177555372939 0.80671100286989239 0.82280276720319578 18.500000000000004 -0.056191864424036057 0.8078673631163481 0.80800653215971119 22.595000000000002 0.10689194894754896
decision_type=2 2 2 2 2 2 2 2 2 2 2 2 2 2 2 2 2 2 2 2 2 2 2 2 2 2 2 2 2 2 2 2 2 2 2 2 2 2 2 2 2 2 2 2 2 2 2 2 2 2 2 2 2 2 2 2 2 2 2 2 2 2 2 2 2 2 2 2 2 2 2 2 2 2
